{"learner":{"attributes":{"scikit_learn":"{\"_estimator_type\": \"classifier\"}"},"feature_names":["ma_short","ma_long","ma_ratio","rsi","return","return_lag_1","return_lag_2"],"feature_types":["float","float","float","float","float","float","float"],"gradient_booster":{"model":{"gbtree_model_param":{"num_parallel_tree":"1","num_trees":"100"},"iteration_indptr":[0,1,2,3,4,5,6,7,8,9,10,11,12,13,14,15,16,17,18,19,20,21,22,23,24,25,26,27,28,29,30,31,32,33,34,35,36,37,38,39,40,41,42,43,44,45,46,47,48,49,50,51,52,53,54,55,56,57,58,59,60,61,62,63,64,65,66,67,68,69,70,71,72,73,74,75,76,77,78,79,80,81,82,83,84,85,86,87,88,89,90,91,92,93,94,95,96,97,98,99,100],"tree_info":[0,0,0,0,0,0,0,0,0,0,0,0,0,0,0,0,0,0,0,0,0,0,0,0,0,0,0,0,0,0,0,0,0,0,0,0,0,0,0,0,0,0,0,0,0,0,0,0,0,0,0,0,0,0,0,0,0,0,0,0,0,0,0,0,0,0,0,0,0,0,0,0,0,0,0,0,0,0,0,0,0,0,0,0,0,0,0,0,0,0,0,0,0,0,0,0,0,0,0,0],"trees":[{"base_weights":[3.0093712E-3,1.4465508E-1,-1.2666504E-1,2.2526766E-1,9.3581304E-2,-4.4518474E-1,-1.02604054E-1,2.943359E-1,1.1428049E-1,1.9756098E-1,5.2150294E-2,-2.926295E-1,-5.605167E-1,-9.594226E-2,-4.039468E-1,3.1354052E-1,-1.3306533E-1,1.9493586E-1,-7.9193994E-2,1.0057843E-1,3.3795384E-1,-7.303729E-2,8.021612E-2,-2.3900005E-1,-9.409394E-1,-1.6307253E-1,-6.717901E-1,-4.7772672E-2,-1.2870282E-1,2.7203214E-1,-5.2415127E-1,6.1773628E-2,1.2447079E-1,1.3334571E-1,-1.1979372E-1,2.9288175E-2,1.0991839E-1,-2.0446135E-1,-5.208698E-3,2.1935698E-2,3.4860218E-1,1.1881616E-1,-6.004882E-2,-5.5963E-3,-1.8319982E-1,4.691824E-2,5.538489E-3,-1.6044964E-1,-3.609553E-2,-3.5690108E-1,2.9533276E-2,-2.1016026E-1,1.1088839E-1,-2.2882368E-1,-7.345906E-2,-2.5304133E-2,2.0517824E-2,-2.4252445E-3,-4.416362E-2,1.5149385E-1,-1.6829857E-1,-1.9997054E-1,6.287684E-4],"categories":[],"categories_nodes":[],"categories_segments":[],"categories_sizes":[],"default_left":[0,0,0,0,0,0,0,0,0,0,0,0,0,0,0,0,0,0,0,0,0,0,0,0,0,0,0,0,0,0,0,0,0,0,0,0,0,0,0,0,0,0,0,0,0,0,0,0,0,0,0,0,0,0,0,0,0,0,0,0,0,0,0],"id":0,"left_children":[1,3,5,7,9,11,13,15,17,19,21,23,25,27,29,31,33,35,37,39,41,43,45,47,49,51,53,55,57,59,61,-1,-1,-1,-1,-1,-1,-1,-1,-1,-1,-1,-1,-1,-1,-1,-1,-1,-1,-1,-1,-1,-1,-1,-1,-1,-1,-1,-1,-1,-1,-1,-1],"loss_changes":[1.6581343E2,1.7742653E1,3.6073204E1,1.2788406E1,1.1375151E1,5.654587E0,8.760353E0,8.499321E0,1.0053276E1,1.0213968E1,6.6506257E0,4.7980957E0,8.170982E0,6.7632065E0,7.8205404E0,1.0675499E1,7.098812E0,7.543684E0,7.0634584E0,1.2931025E1,9.680141E0,1.0130278E1,7.266938E0,4.6674743E0,2.882636E0,1.2362641E1,5.4810944E0,7.390186E0,5.6976776E0,3.1793613E0,6.039629E0,0E0,0E0,0E0,0E0,0E0,0E0,0E0,0E0,0E0,0E0,0E0,0E0,0E0,0E0,0E0,0E0,0E0,0E0,0E0,0E0,0E0,0E0,0E0,0E0,0E0,0E0,0E0,0E0,0E0,0E0,0E0,0E0],"parents":[2147483647,0,0,1,1,2,2,3,3,4,4,5,5,6,6,7,7,8,8,9,9,10,10,11,11,12,12,13,13,14,14,15,15,16,16,17,17,18,18,19,19,20,20,21,21,22,22,23,23,24,24,25,25,26,26,27,27,28,28,29,29,30,30],"right_children":[2,4,6,8,10,12,14,16,18,20,22,24,26,28,30,32,34,36,38,40,42,44,46,48,50,52,54,56,58,60,62,-1,-1,-1,-1,-1,-1,-1,-1,-1,-1,-1,-1,-1,-1,-1,-1,-1,-1,-1,-1,-1,-1,-1,-1,-1,-1,-1,-1,-1,-1,-1,-1],"split_conditions":[-2.5862515E-5,9.994559E-1,4.0221E1,-4.0162433E-4,-7.187057E-4,-1.022704E-4,1.021252E3,2.1905806E-3,4.107618E1,2.236298E2,4.3669643E1,6.1105698E1,9.9924874E-1,2.7173912E-4,-1.2119527E-3,1.69721E2,9.3188E1,9.9894375E-1,4.1595707E1,-7.3632825E-4,1.5041654E-3,1.0003501E0,1.0003616E0,4.1595707E1,3.747582E1,2.435312E-4,7.381708E-4,1.7844397E-4,-9.681167E-4,1.6501427E-3,1.0008912E0,6.1773628E-2,1.2447079E-1,1.3334571E-1,-1.1979372E-1,2.9288175E-2,1.0991839E-1,-2.0446135E-1,-5.208698E-3,2.1935698E-2,3.4860218E-1,1.1881616E-1,-6.004882E-2,-5.5963E-3,-1.8319982E-1,4.691824E-2,5.538489E-3,-1.6044964E-1,-3.609553E-2,-3.5690108E-1,2.9533276E-2,-2.1016026E-1,1.1088839E-1,-2.2882368E-1,-7.345906E-2,-2.5304133E-2,2.0517824E-2,-2.4252445E-3,-4.416362E-2,1.5149385E-1,-1.6829857E-1,-1.9997054E-1,6.287684E-4],"split_indices":[4,2,0,4,4,5,0,5,3,0,3,3,2,4,5,0,0,2,3,4,5,2,2,3,0,5,4,4,5,4,2,0,0,0,0,0,0,0,0,0,0,0,0,0,0,0,0,0,0,0,0,0,0,0,0,0,0,0,0,0,0,0,0],"split_type":[0,0,0,0,0,0,0,0,0,0,0,0,0,0,0,0,0,0,0,0,0,0,0,0,0,0,0,0,0,0,0,0,0,0,0,0,0,0,0,0,0,0,0,0,0,0,0,0,0,0,0,0,0,0,0,0,0,0,0,0,0,0,0],"sum_hessian":[9.025388E3,4.313528E3,4.7118604E3,1.6716536E3,2.641874E3,3.297059E2,4.3821543E3,1.0293984E3,6.422551E2,7.516598E2,1.8902144E3,1.434693E2,1.8623659E2,4.288663E3,9.3491264E1,9.8538794E2,4.4010513E1,4.5328345E2,1.889717E2,4.4557538E2,3.060844E2,3.4586795E2,1.5443463E3,1.3377208E2,9.697232E0,4.12754E1,1.4496118E2,1.7370477E3,2.5516152E3,1.3924231E1,7.956703E1,4.7939136E2,5.0599658E2,1.3675584E1,3.033493E1,2.9017102E2,1.6311241E2,1.6659348E1,1.7231235E2,4.3538086E2,1.0194526E1,2.7649542E2,2.958899E1,3.150357E2,3.0832226E1,6.907413E2,8.5360504E2,3.7297047E1,9.647503E1,7.7080564E0,1.9891758E0,2.0389051E1,2.0886345E1,1.1885326E2,2.6107933E1,1.32131E3,4.1573773E2,3.3965176E2,2.2119634E3,1.1189114E1,2.7351167E0,6.241039E1,1.7156641E1],"tree_param":{"num_deleted":"0","num_feature":"7","num_nodes":"63","size_leaf_vector":"1"}},{"base_weights":[-1.2302253E-3,9.020052E-2,-8.488438E-2,1.9696657E-1,6.9127835E-2,-2.5569198E-1,-6.242147E-2,5.598728E-1,1.7711255E-1,-2.8279098E-2,8.899313E-2,-1.4195189E-1,-3.487287E-1,-7.893335E-2,4.087161E-2,7.1664387E-1,-2.6835832E-1,2.0958985E-1,7.734739E-3,2.0386728E-2,-2.587437E-1,3.4494382E-1,8.098855E-2,-1.04441196E-1,-6.1370134E-1,-4.0845352E-1,1.1061576E-2,-5.28277E-2,-1.564326E-1,1.5315135E-1,-5.3788207E-2,4.2142174E-1,1.3653225E-1,5.3220764E-2,1.3586874E-1,-7.162226E-3,2.5533977E-1,-1.6376797E-2,1.14926994E-1,1.5083435E-2,-1.17876306E-1,2.2831184E-1,8.058824E-2,-9.7160354E-2,2.525461E-2,-3.9898317E-2,2.9893103E-1,1.4741272E-1,-2.2286575E-1,2.493771E-1,-1.2815139E-1,-1.2927084E-1,9.731523E-2,1.3711017E-1,-1.6908942E-2,-4.2450063E-2,-1.2257357E-1,6.912372E-2,-6.12255E-2,-6.514136E-3,-1.292019E-1],"categories":[],"categories_nodes":[],"categories_segments":[],"categories_sizes":[],"default_left":[0,0,0,0,0,0,0,0,0,0,0,0,0,0,0,0,0,0,0,0,0,0,0,0,0,0,0,0,0,0,0,0,0,0,0,0,0,0,0,0,0,0,0,0,0,0,0,0,0,0,0,0,0,0,0,0,0,0,0,0,0],"id":1,"left_children":[1,3,5,7,9,11,13,15,17,19,21,23,25,27,29,31,-1,33,35,37,39,41,43,45,47,49,51,53,55,57,59,-1,-1,-1,-1,-1,-1,-1,-1,-1,-1,-1,-1,-1,-1,-1,-1,-1,-1,-1,-1,-1,-1,-1,-1,-1,-1,-1,-1,-1,-1],"loss_changes":[6.900193E1,9.684204E0,1.8059841E1,5.016371E0,6.971388E0,5.741268E0,7.1067123E0,8.932459E0,3.7094078E0,6.8561444E0,6.101244E0,4.32275E0,6.4579887E0,7.25737E0,6.116122E0,5.3680706E0,0E0,4.352503E0,2.9416027E0,1.3760887E1,4.4385133E0,2.66671E0,3.7795372E0,7.3889723E0,2.9425364E0,6.332447E0,6.19533E0,4.870813E0,3.3473072E0,7.3096113E0,3.7687938E0,0E0,0E0,0E0,0E0,0E0,0E0,0E0,0E0,0E0,0E0,0E0,0E0,0E0,0E0,0E0,0E0,0E0,0E0,0E0,0E0,0E0,0E0,0E0,0E0,0E0,0E0,0E0,0E0,0E0,0E0],"parents":[2147483647,0,0,1,1,2,2,3,3,4,4,5,5,6,6,7,7,8,8,9,9,10,10,11,11,12,12,13,13,14,14,15,15,17,17,18,18,19,19,20,20,21,21,22,22,23,23,24,24,25,25,26,26,27,27,28,28,29,29,30,30],"right_children":[2,4,6,8,10,12,14,16,18,20,22,24,26,28,30,32,-1,34,36,38,40,42,44,46,48,50,52,54,56,58,60,-1,-1,-1,-1,-1,-1,-1,-1,-1,-1,-1,-1,-1,-1,-1,-1,-1,-1,-1,-1,-1,-1,-1,-1,-1,-1,-1,-1,-1,-1],"split_conditions":[-2.5862515E-5,-1.1370863E-3,5.639412E1,-4.932986E-3,7.022213E1,9.9975395E-1,6.698821E-4,1.007307E0,1.2731645E-3,5.735278E-4,7.7076E1,1.7382082E-3,1.0211619E-3,7.1610144E-4,9.9990326E-1,9.901606E-1,-2.6835832E-1,5.1890686E2,1.007307E0,2.975305E-4,9.9935544E-1,9.9878466E-1,7.920389E1,1.569448E-3,-4.932986E-3,-7.939028E-6,1.0005203E0,9.876013E-1,5.119613E-4,1.8548869E-3,6.04944E2,4.2142174E-1,1.3653225E-1,5.3220764E-2,1.3586874E-1,-7.162226E-3,2.5533977E-1,-1.6376797E-2,1.14926994E-1,1.5083435E-2,-1.17876306E-1,2.2831184E-1,8.058824E-2,-9.7160354E-2,2.525461E-2,-3.9898317E-2,2.9893103E-1,1.4741272E-1,-2.2286575E-1,2.493771E-1,-1.2815139E-1,-1.2927084E-1,9.731523E-2,1.3711017E-1,-1.6908942E-2,-4.2450063E-2,-1.2257357E-1,6.912372E-2,-6.12255E-2,-6.514136E-3,-1.292019E-1],"split_indices":[4,4,1,4,1,2,5,2,5,5,1,4,4,4,2,2,0,1,2,5,2,2,1,4,5,4,2,2,5,5,1,0,0,0,0,0,0,0,0,0,0,0,0,0,0,0,0,0,0,0,0,0,0,0,0,0,0,0,0,0,0],"split_type":[0,0,0,0,0,0,0,0,0,0,0,0,0,0,0,0,0,0,0,0,0,0,0,0,0,0,0,0,0,0,0,0,0,0,0,0,0,0,0,0,0,0,0,0,0,0,0,0,0,0,0,0,0,0,0,0,0,0,0,0,0],"sum_hessian":[9.019555E3,4.3094336E3,4.7101216E3,7.089826E2,3.600451E3,5.462284E2,4.163893E3,3.5364532E1,6.736181E2,6.098258E2,2.9906252E3,2.4690532E2,2.993231E2,3.5902163E3,5.736769E2,3.2381374E1,2.9831572E0,5.650377E2,1.0858038E2,5.0425653E2,1.05569275E2,8.9415825E1,2.9012092E3,2.2985037E2,1.705494E1,2.5659354E2,4.2729538E1,2.6868364E3,9.0337994E2,2.6213284E2,3.11544E2,7.714261E0,2.4667112E1,5.0054852E2,6.44892E1,1.05594604E2,2.9857767E0,4.1857953E2,8.5677E1,3.215011E1,7.341917E1,1.2467545E1,7.694828E1,2.1919613E1,2.8792898E3,2.2489648E2,4.953889E0,1.4916136E0,1.5563326E1,3.1708767E0,2.5342267E2,1.7570206E1,2.5159332E1,1.7619213E1,2.6692173E3,8.543457E2,4.903424E1,2.1581303E2,4.6319817E1,2.8808444E2,2.345954E1],"tree_param":{"num_deleted":"0","num_feature":"7","num_nodes":"61","size_leaf_vector":"1"}},{"base_weights":[7.011441E-3,8.5859336E-2,-6.248093E-2,1.2598784E-1,4.3877605E-2,-2.2080459E-1,-5.113727E-2,1.1897771E-1,5.447326E-1,3.212203E-2,3.6781138E-1,-1.933202E-1,-6.513219E-1,4.3229726E-1,-5.3553235E-2,1.805403E-1,6.492601E-2,3.0385867E-1,1.1668792E0,-5.302463E-2,7.05331E-2,4.854451E-1,-9.517377E-1,-2.9139176E-1,-1.7604966E-1,-3.2107018E-2,-1.0203373E0,6.7238146E-1,-6.878786E-1,-7.228165E-2,-2.398315E-3,6.0737778E-2,-5.689696E-3,-2.915068E-2,3.1164158E-2,-1.7466165E-1,1.2881148E-1,4.097585E-1,1.4896317E-1,-7.552856E-2,2.10396E-2,3.0562384E-2,-2.6427042E-2,2.3574036E-1,9.398503E-2,-3.3550984E-1,-4.7343396E-2,3.5243332E-2,-7.067737E-2,-2.0880748E-1,1.2711768E-1,-1.13880314E-1,-3.7509957E-1,1.1888381E-1,3.343554E-1,-1.362131E-2,-3.2468325E-1,-1.8818844E-2,-6.650839E-2,7.249809E-2,-7.2188345E-3],"categories":[],"categories_nodes":[],"categories_segments":[],"categories_sizes":[],"default_left":[0,0,0,0,0,0,0,0,0,0,0,0,0,0,0,0,0,0,0,0,0,0,0,0,0,0,0,0,0,0,0,0,0,0,0,0,0,0,0,0,0,0,0,0,0,0,0,0,0,0,0,0,0,0,0,0,0,0,0,0,0],"id":2,"left_children":[1,3,5,7,9,11,13,15,17,19,21,23,25,27,29,31,33,35,37,39,41,43,45,-1,47,49,51,53,55,57,59,-1,-1,-1,-1,-1,-1,-1,-1,-1,-1,-1,-1,-1,-1,-1,-1,-1,-1,-1,-1,-1,-1,-1,-1,-1,-1,-1,-1,-1,-1],"loss_changes":[4.9262836E1,7.0899143E0,8.571482E0,6.254898E0,7.8323326E0,3.6511173E0,5.2330694E0,7.038454E0,4.9157076E0,6.5084457E0,1.1644363E1,3.8796825E0,4.2478137E0,6.4575725E0,4.253002E0,4.3329735E0,7.1436644E0,3.2198756E0,5.840874E-1,1.5164701E1,6.8248887E0,3.2083483E0,6.4824724E-1,0E0,5.203494E0,2.7243981E0,1.2503862E0,1.8610315E0,1.0730689E0,4.624031E0,6.3019195E0,0E0,0E0,0E0,0E0,0E0,0E0,0E0,0E0,0E0,0E0,0E0,0E0,0E0,0E0,0E0,0E0,0E0,0E0,0E0,0E0,0E0,0E0,0E0,0E0,0E0,0E0,0E0,0E0,0E0,0E0],"parents":[2147483647,0,0,1,1,2,2,3,3,4,4,5,5,6,6,7,7,8,8,9,9,10,10,11,11,12,12,13,13,14,14,15,15,16,16,17,17,18,18,19,19,20,20,21,21,22,22,24,24,25,25,26,26,27,27,28,28,29,29,30,30],"right_children":[2,4,6,8,10,12,14,16,18,20,22,24,26,28,30,32,34,36,38,40,42,44,46,-1,48,50,52,54,56,58,60,-1,-1,-1,-1,-1,-1,-1,-1,-1,-1,-1,-1,-1,-1,-1,-1,-1,-1,-1,-1,-1,-1,-1,-1,-1,-1,-1,-1,-1,-1],"split_conditions":[-4.6760655E-5,-4.6781436E-4,4.0221E1,-4.7705046E-4,-6.09236E-5,1.0014573E0,9.717169E-1,9.995802E-1,1.0006504E0,-2.5626176E-4,5.18664E2,9.953575E-1,2.255792E1,4.6685343E-3,1.000604E0,1.3269368E-3,9.9992603E-1,5.331789E1,1.0013554E0,1.26654E2,1.0008748E0,9.994935E-1,1.0012031E0,-2.9139176E-1,9.989069E-1,1.0018536E0,6.456889E-5,4.925502E-4,-1.5802328E-3,1.000453E0,-1.0730826E-3,6.0737778E-2,-5.689696E-3,-2.915068E-2,3.1164158E-2,-1.7466165E-1,1.2881148E-1,4.097585E-1,1.4896317E-1,-7.552856E-2,2.10396E-2,3.0562384E-2,-2.6427042E-2,2.3574036E-1,9.398503E-2,-3.3550984E-1,-4.7343396E-2,3.5243332E-2,-7.067737E-2,-2.0880748E-1,1.2711768E-1,-1.13880314E-1,-3.7509957E-1,1.1888381E-1,3.343554E-1,-1.362131E-2,-3.2468325E-1,-1.8818844E-2,-6.650839E-2,7.249809E-2,-7.2188345E-3],"split_indices":[4,4,0,4,4,2,2,2,2,5,0,2,0,4,2,5,2,1,2,0,2,2,2,0,2,2,4,5,5,2,5,0,0,0,0,0,0,0,0,0,0,0,0,0,0,0,0,0,0,0,0,0,0,0,0,0,0,0,0,0,0],"split_type":[0,0,0,0,0,0,0,0,0,0,0,0,0,0,0,0,0,0,0,0,0,0,0,0,0,0,0,0,0,0,0,0,0,0,0,0,0,0,0,0,0,0,0,0,0,0,0,0,0,0,0,0,0,0,0,0,0,0,0,0,0],"sum_hessian":[8.988693E3,4.2107866E3,4.7779062E3,2.151889E3,2.0588977E3,3.18208E2,4.459698E3,2.1177207E3,3.416824E1,1.9878574E3,7.1040306E1,3.004746E2,1.7733377E1,2.1291714E1,4.4384067E3,9.889775E2,1.1287433E3,2.570467E1,8.463568E0,6.1785785E2,1.3699996E3,6.5806015E1,5.23429E0,5.3257327E0,2.951489E2,7.027727E0,1.070565E1,1.7862951E1,3.4287632E0,3.2486313E3,1.1897754E3,8.910648E2,9.791267E1,2.1841107E2,9.103322E2,2.7378798E0,2.2966791E1,5.7262163E0,2.7373514E0,2.3599297E2,3.818649E2,1.1442676E3,2.2573198E2,2.267774E1,4.3128273E1,3.9885297E0,1.2457604E0,4.9609818E1,2.4553908E2,2.6463706E0,4.3813562E0,3.527883E0,7.177767E0,1.2163478E1,5.699473E0,1.7283727E0,1.7003903E0,3.0547563E3,1.9387494E2,9.617476E1,1.0936006E3],"tree_param":{"num_deleted":"0","num_feature":"7","num_nodes":"61","size_leaf_vector":"1"}},{"base_weights":[-2.4578266E-3,4.2163305E-2,-3.6631424E-2,6.0073175E-2,-4.815502E-2,-2.105774E-1,-2.5141293E-2,-4.9356803E-2,8.267782E-2,4.4777638E-1,-7.974771E-2,-1.8531428E-1,-7.515028E-1,-1.9864468E-2,-2.823858E-1,1.7683925E-2,-2.3440494E-1,9.868269E-1,7.839906E-2,3.2898912E-1,9.2152286E-1,-4.0747398E-1,-5.325229E-2,-2.7167672E-1,3.598726E-2,-1.0503604E0,1.20754786E-1,-1.5944442E-2,-2.9712E-1,8.279577E-1,-3.4060007E-1,-3.2945132E-5,3.6643946E-1,-1.0536519E-1,1.038147E-2,3.5975718E-1,-1.6436566E-1,1.1726776E-2,4.965706E-2,-2.8107543E-2,1.4238401E-1,3.4807983E-1,1.1670729E-1,-2.5996849E-2,-2.3565792E-1,-2.4227178E-2,3.9301284E-2,-3.0932622E-2,-1.12812884E-1,7.624079E-2,-8.4096655E-2,-9.727226E-2,-3.3014894E-1,-1.5307325E-1,3.0886117E-1,-1.4472209E-2,8.622822E-3,-2.2056194E-3,-1.8003272E-1,-4.9805168E-2,3.8018242E-1,-2.5276374E-2,-1.7660743E-1],"categories":[],"categories_nodes":[],"categories_segments":[],"categories_sizes":[],"default_left":[0,0,0,0,0,0,0,0,0,0,0,0,0,0,0,0,0,0,0,0,0,0,0,0,0,0,0,0,0,0,0,0,0,0,0,0,0,0,0,0,0,0,0,0,0,0,0,0,0,0,0,0,0,0,0,0,0,0,0,0,0,0,0],"id":3,"left_children":[1,3,5,7,9,11,13,15,17,19,21,23,25,27,29,31,33,35,37,39,41,43,45,47,49,51,53,55,57,59,61,-1,-1,-1,-1,-1,-1,-1,-1,-1,-1,-1,-1,-1,-1,-1,-1,-1,-1,-1,-1,-1,-1,-1,-1,-1,-1,-1,-1,-1,-1,-1,-1],"loss_changes":[1.3722099E1,6.316157E0,1.0179888E1,8.061846E0,1.0163598E1,4.1739197E0,6.4847894E0,6.930444E0,1.0368561E1,1.8839021E0,5.2624884E0,5.7982864E0,3.7127194E0,5.0886087E0,6.489343E0,8.798616E0,4.680088E0,4.773884E0,9.201315E0,2.0528073E0,4.6854162E-1,5.434499E0,2.8698342E0,3.7959442E0,5.9985547E0,1.9911766E-2,3.052612E0,6.672078E0,5.726789E0,2.426728E0,5.7986E0,0E0,0E0,0E0,0E0,0E0,0E0,0E0,0E0,0E0,0E0,0E0,0E0,0E0,0E0,0E0,0E0,0E0,0E0,0E0,0E0,0E0,0E0,0E0,0E0,0E0,0E0,0E0,0E0,0E0,0E0,0E0,0E0],"parents":[2147483647,0,0,1,1,2,2,3,3,4,4,5,5,6,6,7,7,8,8,9,9,10,10,11,11,12,12,13,13,14,14,15,15,16,16,17,17,18,18,19,19,20,20,21,21,22,22,23,23,24,24,25,25,26,26,27,27,28,28,29,29,30,30],"right_children":[2,4,6,8,10,12,14,16,18,20,22,24,26,28,30,32,34,36,38,40,42,44,46,48,50,52,54,56,58,60,62,-1,-1,-1,-1,-1,-1,-1,-1,-1,-1,-1,-1,-1,-1,-1,-1,-1,-1,-1,-1,-1,-1,-1,-1,-1,-1,-1,-1,-1,-1,-1,-1],"split_conditions":[-1.02411796E-4,6.4282824E-4,4.0221E1,-7.997867E-4,-1.9696034E-3,6.758012E1,1.021252E3,4.5012486E1,-4.932986E-3,4.989378E1,6.863846E-4,5.2872754E-4,5.125577E-4,2.45283E-3,-1.9758919E-3,4.479738E1,2.9154803E2,4.830076E1,2.975305E-4,9.342516E1,2.587825E2,1.556178E-4,6.025172E1,-1.7722417E-4,1.0466047E-3,-2.2043426E-4,7.511413E1,7.9106416E-5,5.211758E1,1.059964E3,-6.7838E-5,-3.2945132E-5,3.6643946E-1,-1.0536519E-1,1.038147E-2,3.5975718E-1,-1.6436566E-1,1.1726776E-2,4.965706E-2,-2.8107543E-2,1.4238401E-1,3.4807983E-1,1.1670729E-1,-2.5996849E-2,-2.3565792E-1,-2.4227178E-2,3.9301284E-2,-3.0932622E-2,-1.12812884E-1,7.624079E-2,-8.4096655E-2,-9.727226E-2,-3.3014894E-1,-1.5307325E-1,3.0886117E-1,-1.4472209E-2,8.622822E-3,-2.2056194E-3,-1.8003272E-1,-4.9805168E-2,3.8018242E-1,-2.5276374E-2,-1.7660743E-1],"split_indices":[4,6,0,6,5,3,0,3,4,3,6,4,6,6,6,3,0,3,5,0,0,5,3,5,4,6,3,6,3,0,5,0,0,0,0,0,0,0,0,0,0,0,0,0,0,0,0,0,0,0,0,0,0,0,0,0,0,0,0,0,0,0,0],"split_type":[0,0,0,0,0,0,0,0,0,0,0,0,0,0,0,0,0,0,0,0,0,0,0,0,0,0,0,0,0,0,0,0,0,0,0,0,0,0,0,0,0,0,0,0,0,0,0,0,0,0,0,0,0,0,0,0,0,0,0,0,0,0,0],"sum_hessian":[8.996884E3,3.9018843E3,5.095E3,3.2564702E3,6.4541394E2,3.1462662E2,4.7803735E3,5.573129E2,2.6991572E3,3.7864014E1,6.075499E2,3.0187076E2,1.275584E1,4.685341E3,9.503259E1,4.097646E2,1.4754837E2,1.163163E1,2.6875256E3,3.1628038E1,6.235976E0,4.4368576E1,5.631814E2,2.1697076E2,8.49E1,9.34859E0,3.4072502E0,4.6210625E3,6.427823E1,4.0755463E0,9.095705E1,4.047812E2,4.983382E0,1.02663246E2,4.488513E1,1.0409809E1,1.2218211E0,1.8529426E3,8.3458307E2,8.195845E0,2.3432194E1,3.491617E0,2.7443593E0,2.4666029E1,1.9702545E1,4.9052045E2,7.266091E1,8.372674E1,1.3324402E2,5.036287E1,3.4537136E1,1.0860829E0,8.262507E0,2.2697945E0,1.1374557E0,2.6823787E3,1.9386841E3,3.3379513E1,3.0898712E1,1.4398713E0,2.6356747E0,4.5393196E1,4.556385E1],"tree_param":{"num_deleted":"0","num_feature":"7","num_nodes":"63","size_leaf_vector":"1"}},{"base_weights":[-4.9875155E-3,-5.6693964E-2,6.4657913E-3,-4.082072E-1,-5.0483234E-2,4.8845433E-2,-1.113443E-2,1.7634872E-1,-5.1392996E-1,1.558541E-1,-6.468E-2,-3.8829185E-2,8.368805E-2,-2.3936493E-2,9.395734E-2,1.0630734E-2,-7.0237947E-1,5.5488193E-1,-5.7616152E-2,-5.6645975E-2,-3.9843363E-1,5.199693E-2,-1.6587043E-1,-1.3047547E-2,1.540746E-1,4.948819E-2,-4.2924855E-2,1.3756077E-1,-1.9874278E-1,-1.8622799E-1,6.6774964E-2,-2.3934588E-1,2.7067127E-2,8.001438E-2,2.8509697E-1,3.9627843E-2,-1.3289043E-1,-9.727118E-3,-4.5361307E-2,8.1148595E-2,-1.5153095E-1,-8.933082E-3,5.796192E-2,8.7213874E-2,-6.942276E-2,-8.750266E-2,2.0822411E-2,5.4417446E-2,-1.1970394E-2,-6.077377E-2,2.2288404E-2,-4.0685724E-2,-7.330706E-3,5.9479155E-2,-1.2059498E-2,3.9236557E-2,-1.8829592E-1],"categories":[],"categories_nodes":[],"categories_segments":[],"categories_sizes":[],"default_left":[0,0,0,0,0,0,0,0,0,0,0,0,0,0,0,0,0,0,0,0,0,0,0,0,0,0,0,0,0,0,0,0,0,0,0,0,0,0,0,0,0,0,0,0,0,0,0,0,0,0,0,0,0,0,0,0,0],"id":4,"left_children":[1,3,5,7,9,11,13,-1,15,17,19,21,23,25,27,29,31,33,35,37,39,41,43,45,47,49,51,53,55,-1,-1,-1,-1,-1,-1,-1,-1,-1,-1,-1,-1,-1,-1,-1,-1,-1,-1,-1,-1,-1,-1,-1,-1,-1,-1,-1,-1],"loss_changes":[5.3128552E0,3.5309978E0,5.4789624E0,3.2614975E0,4.6961756E0,6.5876255E0,6.9853525E0,0E0,2.571741E0,8.828939E0,3.9926577E0,7.0894303E0,1.050642E1,6.453937E0,7.2232966E0,1.1875077E0,1.5167542E0,3.858842E0,5.0432825E0,3.3469195E0,2.6363893E0,4.1465225E0,7.729744E0,1.4969238E1,4.739462E0,5.963455E0,6.2989163E0,5.3095055E0,1.047221E1,0E0,0E0,0E0,0E0,0E0,0E0,0E0,0E0,0E0,0E0,0E0,0E0,0E0,0E0,0E0,0E0,0E0,0E0,0E0,0E0,0E0,0E0,0E0,0E0,0E0,0E0,0E0,0E0],"parents":[2147483647,0,0,1,1,2,2,3,3,4,4,5,5,6,6,8,8,9,9,10,10,11,11,12,12,13,13,14,14,15,15,16,16,17,17,18,18,19,19,20,20,21,21,22,22,23,23,24,24,25,25,26,26,27,27,28,28],"right_children":[2,4,6,8,10,12,14,-1,16,18,20,22,24,26,28,30,32,34,36,38,40,42,44,46,48,50,52,54,56,-1,-1,-1,-1,-1,-1,-1,-1,-1,-1,-1,-1,-1,-1,-1,-1,-1,-1,-1,-1,-1,-1,-1,-1,-1,-1,-1,-1],"split_conditions":[7.0744E1,1.7036148E1,4.146373E1,-3.6109274E-3,9.976474E-1,-6.1462814E-4,1.0016755E0,1.7634872E-1,9.717169E-1,-7.863696E-4,7.0436E1,9.985846E-1,1.84969E2,1.15905E2,4.9177E2,-1.9758919E-3,9.9584407E-1,9.966719E-1,3.6426903E1,5.0131726E-4,-6.2408985E-4,9.977172E-1,9.364152E1,-7.7011937E-4,6.0774725E2,-7.997867E-4,1.52692E2,6.8765526E1,2.975305E-4,-1.8622799E-1,6.6774964E-2,-2.3934588E-1,2.7067127E-2,8.001438E-2,2.8509697E-1,3.9627843E-2,-1.3289043E-1,-9.727118E-3,-4.5361307E-2,8.1148595E-2,-1.5153095E-1,-8.933082E-3,5.796192E-2,8.7213874E-2,-6.942276E-2,-8.750266E-2,2.0822411E-2,5.4417446E-2,-1.1970394E-2,-6.077377E-2,2.2288404E-2,-4.0685724E-2,-7.330706E-3,5.9479155E-2,-1.2059498E-2,3.9236557E-2,-1.8829592E-1],"split_indices":[0,3,3,5,2,6,2,0,2,6,0,2,0,0,0,6,2,2,3,5,6,2,0,5,0,6,0,3,5,0,0,0,0,0,0,0,0,0,0,0,0,0,0,0,0,0,0,0,0,0,0,0,0,0,0,0,0],"split_type":[0,0,0,0,0,0,0,0,0,0,0,0,0,0,0,0,0,0,0,0,0,0,0,0,0,0,0,0,0,0,0,0,0,0,0,0,0,0,0,0,0,0,0,0,0,0,0,0,0,0,0,0,0,0,0,0,0],"sum_hessian":[8.96962E3,1.6258228E3,7.3437974E3,2.7103437E1,1.5987192E3,2.15441E3,5.189387E3,2.163216E0,2.4940222E1,1.02274376E2,1.496445E3,6.1265906E2,1.5417509E3,4.6265615E3,5.62826E2,6.841125E0,1.8099096E1,3.508766E1,6.718671E1,1.4624119E3,3.403306E1,3.5759378E2,2.5506528E2,6.496796E2,8.920712E2,9.5030206E2,3.6762593E3,4.9031412E2,7.251188E1,1.2345934E0,5.6065316E0,1.6148071E1,1.9510262E0,2.1265482E1,1.3822181E1,4.5462643E1,2.1724068E1,1.1652596E3,2.9715225E2,4.4694066E0,2.9563652E1,2.2695442E2,1.3063934E2,3.1585493E1,2.2347978E2,1.477788E2,5.0190082E2,7.820088E2,1.1006246E2,8.450014E1,8.6580194E2,6.1028766E2,3.0659717E3,3.6541348E2,1.2490064E2,4.1399643E1,3.1112236E1],"tree_param":{"num_deleted":"0","num_feature":"7","num_nodes":"57","size_leaf_vector":"1"}},{"base_weights":[-7.3921783E-3,2.6706472E-2,-3.465331E-2,1.7682943E-2,1.3301224E-1,-1.7803112E-1,-2.9111698E-2,3.4317706E-2,-6.930157E-2,1.0938437E-1,6.314038E-1,-2.2974657E-1,7.4576616E-1,1.211311E-1,-3.7528906E-2,4.268421E-1,2.9844739E-2,-3.101108E-1,-2.4563923E-2,2.2647272E-1,8.76719E-3,7.7092963E-1,-9.554144E-2,-5.3364205E-1,-1.2677993E-1,1.4072572E0,-3.252526E-2,-9.1537505E-2,2.533367E-1,1.4208981E-1,-4.5672942E-2,2.0844589E-1,-9.662928E-3,1.1414789E-2,-3.7753016E-2,-1.8758874E-1,-5.059289E-2,8.35065E-2,-1.5620479E-2,5.3683884E-2,2.612953E-1,-4.6740048E-2,4.9462188E-2,6.2243495E-2,3.652231E-1,-1.0418399E-1,-2.9763296E-1,1.5418279E-1,-5.3285968E-2,8.965096E-2,4.9880162E-1,1.0598559E-1,-1.5193516E-1,1.5290216E-2,-1.8228881E-1,9.301572E-2,-6.912091E-2,3.435997E-1,3.6091827E-2,-7.237272E-2,-1.0713305E-2],"categories":[],"categories_nodes":[],"categories_segments":[],"categories_sizes":[],"default_left":[0,0,0,0,0,0,0,0,0,0,0,0,0,0,0,0,0,0,0,0,0,0,0,0,0,0,0,0,0,0,0,0,0,0,0,0,0,0,0,0,0,0,0,0,0,0,0,0,0,0,0,0,0,0,0,0,0,0,0,0,0],"id":5,"left_children":[1,3,5,7,9,11,13,15,17,19,21,23,25,27,29,31,33,35,37,39,41,43,-1,45,47,49,51,53,55,57,59,-1,-1,-1,-1,-1,-1,-1,-1,-1,-1,-1,-1,-1,-1,-1,-1,-1,-1,-1,-1,-1,-1,-1,-1,-1,-1,-1,-1,-1,-1],"loss_changes":[8.349622E0,3.8258278E0,3.960763E0,5.3267817E0,3.6061053E0,9.035816E0,6.0835047E0,5.4118915E0,6.3600187E0,3.5226302E0,2.0899024E0,5.4544706E0,5.2312093E0,7.199875E0,6.6662364E0,4.295421E0,3.908253E0,4.0197687E0,4.1764784E0,4.0783105E0,4.1860795E0,2.8735414E0,0E0,3.4447718E0,4.4277697E0,1.0509272E0,1.2037532E0,7.281414E0,4.397173E0,4.1830616E0,8.477881E0,0E0,0E0,0E0,0E0,0E0,0E0,0E0,0E0,0E0,0E0,0E0,0E0,0E0,0E0,0E0,0E0,0E0,0E0,0E0,0E0,0E0,0E0,0E0,0E0,0E0,0E0,0E0,0E0,0E0,0E0],"parents":[2147483647,0,0,1,1,2,2,3,3,4,4,5,5,6,6,7,7,8,8,9,9,10,10,11,11,12,12,13,13,14,14,15,15,16,16,17,17,18,18,19,19,20,20,21,21,23,23,24,24,25,25,26,26,27,27,28,28,29,29,30,30],"right_children":[2,4,6,8,10,12,14,16,18,20,22,24,26,28,30,32,34,36,38,40,42,44,-1,46,48,50,52,54,56,58,60,-1,-1,-1,-1,-1,-1,-1,-1,-1,-1,-1,-1,-1,-1,-1,-1,-1,-1,-1,-1,-1,-1,-1,-1,-1,-1,-1,-1,-1,-1],"split_conditions":[-8.505861E-5,-1.3831937E-4,2.8906784E1,5.4166466E1,6.650235E1,5.28626E2,3.506486E1,-4.932986E-3,6.5246E1,-6.1055034E-5,4.94185E2,-9.462976E-4,6.04932E2,1.3082417E2,-1.3979203E-3,5.530732E-4,7.5621045E2,5.632444E1,8.694413E1,-1.02411796E-4,1.69306E2,9.364152E1,-9.554144E-2,1.2708242E-3,1.0283067E1,3.941974E-5,8.0450525E-4,6.0053077E-4,6.175074E-4,1.9337154E1,-9.462976E-4,2.0844589E-1,-9.662928E-3,1.1414789E-2,-3.7753016E-2,-1.8758874E-1,-5.059289E-2,8.35065E-2,-1.5620479E-2,5.3683884E-2,2.612953E-1,-4.6740048E-2,4.9462188E-2,6.2243495E-2,3.652231E-1,-1.0418399E-1,-2.9763296E-1,1.5418279E-1,-5.3285968E-2,8.965096E-2,4.9880162E-1,1.0598559E-1,-1.5193516E-1,1.5290216E-2,-1.8228881E-1,9.301572E-2,-6.912091E-2,3.435997E-1,3.6091827E-2,-7.237272E-2,-1.0713305E-2],"split_indices":[4,4,3,3,3,0,3,4,0,6,0,6,0,1,6,6,1,3,1,6,0,0,0,4,3,4,4,4,6,1,6,0,0,0,0,0,0,0,0,0,0,0,0,0,0,0,0,0,0,0,0,0,0,0,0,0,0,0,0,0,0],"split_type":[0,0,0,0,0,0,0,0,0,0,0,0,0,0,0,0,0,0,0,0,0,0,0,0,0,0,0,0,0,0,0,0,0,0,0,0,0,0,0,0,0,0,0,0,0,0,0,0,0,0,0,0,0,0,0,0,0,0,0,0,0],"sum_hessian":[8.980266E3,3.989792E3,4.9904736E3,3.6787002E3,3.1109195E2,1.8454799E2,4.805926E3,3.0886396E3,5.900605E2,2.9817548E2,1.2916494E1,1.754759E2,9.072082E0,2.5425288E2,4.551673E3,3.3735775E1,3.0549038E3,9.151752E1,4.9854297E2,1.3722997E2,1.6094551E2,1.1426465E1,1.4900289E0,4.3350037E1,1.3212587E2,4.467173E0,4.6049085E0,9.7584335E1,1.5666855E2,1.9671123E2,4.354962E3,2.0976734E1,1.2759042E1,2.9026914E3,1.5221236E2,2.7291979E1,6.422554E1,4.07394E1,4.578036E2,1.2899545E2,8.234511E0,7.835054E1,8.259496E1,5.699052E0,5.727413E0,3.2071003E1,1.1279032E1,9.043538E0,1.2308234E2,1.24299E0,3.2241833E0,2.6787562E0,1.9261525E0,7.7175606E1,2.0408728E1,1.4054904E2,1.6119514E1,3.0843647E0,1.9362686E2,2.0995596E2,4.145006E3],"tree_param":{"num_deleted":"0","num_feature":"7","num_nodes":"61","size_leaf_vector":"1"}},{"base_weights":[2.037894E-3,-4.2102918E-2,1.6189225E-2,-2.8257886E-1,-3.7540976E-2,2.4134506E-2,-9.670717E-2,-4.1766098E-1,3.3341256E-1,3.0223425E-2,-5.9566893E-2,5.689632E-3,8.986827E-2,3.274487E-1,-1.2952393E-1,-2.700614E-1,-3.4538373E-1,-1.7719698E-1,6.3226765E-1,5.786964E-2,-7.2671163E-1,-3.405233E-1,-4.7211237E-2,6.601676E-2,-1.0939437E-2,1.0020753E-1,-3.1614032E-1,5.511383E-3,6.4385813E-1,-2.802268E-1,9.205228E-3,-1.9133379E-1,5.6394044E-2,7.013228E-2,3.0561185E-1,-5.359755E-4,8.437681E-2,-1.2469028E-1,-3.8268825E-1,8.504478E-2,-1.3973263E-1,-2.1392822E-2,1.5135645E-2,-1.3638015E-2,2.893803E-2,-1.4487214E-1,-2.6956918E-3,-1.2309051E-1,3.256792E-2,-3.2628715E-2,-2.1964069E-1,6.645758E-2,-1.8248868E-1,2.3854063E-1,2.0164534E-2,1.0888376E-1,-1.0093874E-1,2.2504508E-1,-4.3087606E-3],"categories":[],"categories_nodes":[],"categories_segments":[],"categories_sizes":[],"default_left":[0,0,0,0,0,0,0,0,0,0,0,0,0,0,0,0,0,0,0,0,0,0,0,0,0,0,0,0,0,0,0,0,0,0,0,0,0,0,0,0,0,0,0,0,0,0,0,0,0,0,0,0,0,0,0,0,0,0,0],"id":6,"left_children":[1,3,5,7,9,11,13,15,17,19,21,23,25,27,29,31,-1,-1,33,35,37,39,41,43,45,47,49,51,53,55,57,-1,-1,-1,-1,-1,-1,-1,-1,-1,-1,-1,-1,-1,-1,-1,-1,-1,-1,-1,-1,-1,-1,-1,-1,-1,-1,-1,-1],"loss_changes":[5.6062202E0,2.3796434E0,6.098342E0,3.501798E0,3.195033E0,7.6985617E0,6.264898E0,3.3258982E0,2.5341554E0,1.1038246E1,5.5900426E0,4.9762025E0,5.872201E0,3.2954838E0,8.692518E0,5.0494113E0,0E0,0E0,7.466378E-1,6.768714E0,2.6440964E0,5.436466E0,3.6470091E0,3.6419687E0,3.5816684E0,5.8328686E0,2.9217846E0,2.39698E0,1.3706255E0,7.3291616E0,3.8069403E0,0E0,0E0,0E0,0E0,0E0,0E0,0E0,0E0,0E0,0E0,0E0,0E0,0E0,0E0,0E0,0E0,0E0,0E0,0E0,0E0,0E0,0E0,0E0,0E0,0E0,0E0,0E0,0E0],"parents":[2147483647,0,0,1,1,2,2,3,3,4,4,5,5,6,6,7,7,8,8,9,9,10,10,11,11,12,12,13,13,14,14,15,15,18,18,19,19,20,20,21,21,22,22,23,23,24,24,25,25,26,26,27,27,28,28,29,29,30,30],"right_children":[2,4,6,8,10,12,14,16,18,20,22,24,26,28,30,32,-1,-1,34,36,38,40,42,44,46,48,50,52,54,56,58,-1,-1,-1,-1,-1,-1,-1,-1,-1,-1,-1,-1,-1,-1,-1,-1,-1,-1,-1,-1,-1,-1,-1,-1,-1,-1,-1,-1],"split_conditions":[9.007124E1,1.7036148E1,1.1835968E-3,4.925502E-4,4.0240955E1,3.5571997E-4,1.0631506E2,7.1610144E-4,4.733525E1,1.3709419E-3,4.13255E1,-4.6781436E-4,1.02105035E3,5.0304108E1,2.54697E2,-2.4179544E-4,-3.4538373E-1,-1.7719698E-1,1.4313831E-3,2.2789426E-4,5.92189E-6,-8.392175E-4,6.148699E-4,-8.3905313E-4,-4.932986E-3,9.15676E1,8.713982E-4,4.6990036E1,1.0183E2,-2.2773857E-3,2.6089474E2,-1.9133379E-1,5.6394044E-2,7.013228E-2,3.0561185E-1,-5.359755E-4,8.437681E-2,-1.2469028E-1,-3.8268825E-1,8.504478E-2,-1.3973263E-1,-2.1392822E-2,1.5135645E-2,-1.3638015E-2,2.893803E-2,-1.4487214E-1,-2.6956918E-3,-1.2309051E-1,3.256792E-2,-3.2628715E-2,-2.1964069E-1,6.645758E-2,-1.8248868E-1,2.3854063E-1,2.0164534E-2,1.0888376E-1,-1.0093874E-1,2.2504508E-1,-4.3087606E-3],"split_indices":[1,3,5,5,3,5,0,4,1,4,3,4,1,3,0,4,0,0,5,5,5,4,4,5,5,0,5,3,0,4,1,0,0,0,0,0,0,0,0,0,0,0,0,0,0,0,0,0,0,0,0,0,0,0,0,0,0,0,0],"split_type":[0,0,0,0,0,0,0,0,0,0,0,0,0,0,0,0,0,0,0,0,0,0,0,0,0,0,0,0,0,0,0,0,0,0,0,0,0,0,0,0,0,0,0,0,0,0,0,0,0,0,0,0,0,0,0,0,0,0,0],"sum_hessian":[8.97287E3,2.1778252E3,6.7950444E3,3.9410618E1,2.1384146E3,6.3490083E3,4.460363E2,3.2586597E1,6.824018E0,5.2447015E2,1.6139443E3,4.9586885E3,1.3903198E3,3.1386633E1,4.1464966E2,2.8267475E1,4.319124E0,1.4290265E0,5.3949914E0,5.0688043E2,1.7589699E1,6.686794E1,1.5470764E3,1.0708557E3,3.8878328E3,1.3565282E3,3.379164E1,1.6061722E1,1.5324911E1,1.9825899E2,2.1639067E2,1.5462059E1,1.2805416E1,3.4462156E0,1.9487756E0,4.0082935E2,1.0605109E2,1.234872E1,5.24098E0,1.09670105E1,5.5900932E1,1.2411067E3,3.059698E2,2.2960379E2,8.4125195E2,1.5013217E1,3.8728196E3,2.1061565E1,1.3354666E3,2.3391958E1,1.0399682E1,1.2353364E1,3.7083583E0,1.183991E1,3.4850016E0,1.5502406E1,1.8275658E2,5.720325E0,2.1067033E2],"tree_param":{"num_deleted":"0","num_feature":"7","num_nodes":"59","size_leaf_vector":"1"}},{"base_weights":[8.644423E-4,-1.9729713E-2,3.4765497E-2,9.787431E-4,-7.35888E-2,4.5704618E-2,-1.04289606E-1,-8.025835E-3,1.0439444E-1,-2.0457388E-1,-3.9350122E-2,3.933563E-2,3.1614247E-1,2.8843495E-1,-1.5088108E-1,8.947279E-2,-1.3810372E-2,6.536307E-2,4.2197803E-1,-1.5513054E-1,-6.495833E-1,-8.893624E-1,-3.364708E-2,5.0244614E-2,-8.57727E-2,-4.0736157E-1,3.9805272E-1,1.0000296E0,-9.986431E-2,-1.0022512E-1,-4.4197753E-1,1.1816133E-2,1.9500577E-1,-4.0632617E-2,2.4010541E-4,7.365804E-2,-6.92276E-3,8.358508E-2,3.702015E-1,-1.5861315E-1,-2.8245669E-2,-3.0436325E-1,-1.3456208E-1,-3.367697E-1,2.890999E-2,1.5205195E-2,-2.5747614E-2,1.7519828E-2,-2.7642537E-2,-5.5214003E-2,5.9509918E-2,-3.3241984E-1,7.175342E-2,2.0733184E-1,4.4824306E-2,1.2597718E-2,3.8419792E-1,1.125713E-1,-1.4303434E-1,-8.296828E-2,1.4689737E-2,-2.0420298E-1,1.02701545E-1],"categories":[],"categories_nodes":[],"categories_segments":[],"categories_sizes":[],"default_left":[0,0,0,0,0,0,0,0,0,0,0,0,0,0,0,0,0,0,0,0,0,0,0,0,0,0,0,0,0,0,0,0,0,0,0,0,0,0,0,0,0,0,0,0,0,0,0,0,0,0,0,0,0,0,0,0,0,0,0,0,0,0,0],"id":7,"left_children":[1,3,5,7,9,11,13,15,17,19,21,23,25,27,29,31,33,35,37,39,41,43,45,47,49,51,53,55,57,59,61,-1,-1,-1,-1,-1,-1,-1,-1,-1,-1,-1,-1,-1,-1,-1,-1,-1,-1,-1,-1,-1,-1,-1,-1,-1,-1,-1,-1,-1,-1,-1,-1],"loss_changes":[6.2652893E0,6.226624E0,5.1634345E0,3.7566702E0,6.945094E0,5.4040117E0,4.5746384E0,2.094258E0,3.9777906E0,6.963086E0,5.9343977E0,4.198995E0,4.4416795E0,7.4514723E0,3.2296786E0,5.813557E0,6.227435E0,4.6095304E0,3.7519073E0,6.562306E0,1.8774166E0,1.9840851E0,5.3866954E0,3.288601E0,6.929993E0,3.8160214E0,4.6602364E0,2.495947E0,3.4241786E0,5.02283E0,6.3393674E0,0E0,0E0,0E0,0E0,0E0,0E0,0E0,0E0,0E0,0E0,0E0,0E0,0E0,0E0,0E0,0E0,0E0,0E0,0E0,0E0,0E0,0E0,0E0,0E0,0E0,0E0,0E0,0E0,0E0,0E0,0E0,0E0],"parents":[2147483647,0,0,1,1,2,2,3,3,4,4,5,5,6,6,7,7,8,8,9,9,10,10,11,11,12,12,13,13,14,14,15,15,16,16,17,17,18,18,19,19,20,20,21,21,22,22,23,23,24,24,25,25,26,26,27,27,28,28,29,29,30,30],"right_children":[2,4,6,8,10,12,14,16,18,20,22,24,26,28,30,32,34,36,38,40,42,44,46,48,50,52,54,56,58,60,62,-1,-1,-1,-1,-1,-1,-1,-1,-1,-1,-1,-1,-1,-1,-1,-1,-1,-1,-1,-1,-1,-1,-1,-1,-1,-1,-1,-1,-1,-1,-1,-1],"split_conditions":[1.4892526E-4,5.211758E1,1.8564357E-3,1.0005071E0,8.0377E1,1.656667E-3,5.639412E1,-1.8629235E-3,5.1493614E1,7.199603E-5,-3.6363637E-3,1.228124E-3,5.65385E1,4.295186E1,4.81621E2,4.7431213E1,-1.0477788E-3,1.0007136E0,7.9106416E-5,5.3299496E1,5.542554E1,3.954837E2,-3.1016552E-4,6.808514E1,5.8700397E1,4.9452457E1,1.78848E2,2.4347332E1,3.747582E1,1.640822E2,1.051433E3,1.1816133E-2,1.9500577E-1,-4.0632617E-2,2.4010541E-4,7.365804E-2,-6.92276E-3,8.358508E-2,3.702015E-1,-1.5861315E-1,-2.8245669E-2,-3.0436325E-1,-1.3456208E-1,-3.367697E-1,2.890999E-2,1.5205195E-2,-2.5747614E-2,1.7519828E-2,-2.7642537E-2,-5.5214003E-2,5.9509918E-2,-3.3241984E-1,7.175342E-2,2.0733184E-1,4.4824306E-2,1.2597718E-2,3.8419792E-1,1.125713E-1,-1.4303434E-1,-8.296828E-2,1.4689737E-2,-2.0420298E-1,1.02701545E-1],"split_indices":[6,3,6,2,0,6,1,6,3,6,6,6,1,3,0,3,6,2,6,3,3,1,6,3,3,3,0,3,0,1,0,0,0,0,0,0,0,0,0,0,0,0,0,0,0,0,0,0,0,0,0,0,0,0,0,0,0,0,0,0,0,0,0],"split_type":[0,0,0,0,0,0,0,0,0,0,0,0,0,0,0,0,0,0,0,0,0,0,0,0,0,0,0,0,0,0,0,0,0,0,0,0,0,0,0,0,0,0,0,0,0,0,0,0,0,0,0,0,0,0,0,0,0,0,0,0,0,0,0],"sum_hessian":[8.971974E3,5.5816567E3,3.390317E3,4.0322612E3,1.5493954E3,3.1436826E3,2.4663435E2,3.7101357E3,3.2212537E2,3.2004425E2,1.2293511E3,3.0724695E3,7.121318E1,2.5606205E1,2.2102815E2,2.0698172E2,3.503154E3,2.879427E2,3.4182663E1,2.8925482E2,3.0789427E1,7.1605425E0,1.2221906E3,2.8265989E3,2.4587059E2,6.838269E0,6.437491E1,8.483673E0,1.7122532E1,1.8941148E2,3.1616669E1,1.90987E2,1.5994716E1,3.747936E2,3.1283606E3,9.422192E1,1.937208E2,3.0194942E1,3.9877195E0,3.9512623E1,2.4974219E2,9.499051E0,2.1290377E1,5.6783447E0,1.4821975E0,4.6717175E2,7.550188E2,2.67404E3,1.5255878E2,1.8294757E2,6.2923023E1,2.9391003E0,3.899169E0,2.8731482E1,3.564343E1,2.1825044E0,6.301169E0,7.576651E0,9.54588E0,8.641718E1,1.029943E2,2.4340893E1,7.2757773E0],"tree_param":{"num_deleted":"0","num_feature":"7","num_nodes":"63","size_leaf_vector":"1"}},{"base_weights":[1.0977231E-2,4.1420594E-2,-6.103327E-3,2.8382558E-2,1.6379829E-1,-2.0729615E-1,-2.4804054E-3,5.734796E-2,-2.4788082E-2,7.3853177E-1,1.1708451E-1,-5.011023E-1,-2.4324697E-2,-1.5575692E-1,2.512769E-3,4.603907E-2,3.7759265E-1,-3.2091466E-1,-3.251789E-3,-2.5686038E-1,9.5916545E-1,2.4471207E-1,-1.0555223E-2,1.8984391E-1,-5.618622E-1,1.1146744E0,-9.6173145E-2,-3.4642562E-1,1.950324E-2,3.8281947E-1,1.892285E-4,8.754317E-2,1.1012131E-2,3.3355448E-1,8.710328E-2,-3.5878593E-1,-6.827071E-2,-1.0216249E-1,4.28386E-3,-2.6439622E-1,7.836417E-2,3.5935324E-1,1.5434018E-1,8.165941E-2,-1.4937104E-1,-1.8677074E-1,2.254146E-2,-1.3324265E-1,-3.009721E-1,7.296112E-2,4.5980346E-1,-5.158322E-2,1.4135742E-1,-8.091388E-2,-4.0994045E-1,3.7981816E-2,-2.538343E-1,2.2143926E-1,1.802716E-2,-2.1079413E-3,2.6338816E-2],"categories":[],"categories_nodes":[],"categories_segments":[],"categories_sizes":[],"default_left":[0,0,0,0,0,0,0,0,0,0,0,0,0,0,0,0,0,0,0,0,0,0,0,0,0,0,0,0,0,0,0,0,0,0,0,0,0,0,0,0,0,0,0,0,0,0,0,0,0,0,0,0,0,0,0,0,0,0,0,0,0],"id":8,"left_children":[1,3,5,7,9,11,13,15,17,19,21,23,25,27,29,31,33,35,37,39,41,43,45,-1,47,49,51,53,55,57,59,-1,-1,-1,-1,-1,-1,-1,-1,-1,-1,-1,-1,-1,-1,-1,-1,-1,-1,-1,-1,-1,-1,-1,-1,-1,-1,-1,-1,-1,-1],"loss_changes":[4.652317E0,5.1260037E0,4.1774898E0,4.4787965E0,8.220038E0,5.4376717E0,4.3103886E0,6.7994323E0,6.5417295E0,5.312557E0,4.6831627E0,3.0324774E0,5.305638E0,5.9442763E0,4.8201284E0,4.161677E0,3.7812119E0,5.408187E0,5.6659627E0,1.8394637E0,1.4103909E0,3.0688524E0,7.631086E0,0E0,1.4980965E0,1.0292506E0,2.6893952E0,6.2946978E0,8.77815E0,3.7539716E0,3.4285479E0,0E0,0E0,0E0,0E0,0E0,0E0,0E0,0E0,0E0,0E0,0E0,0E0,0E0,0E0,0E0,0E0,0E0,0E0,0E0,0E0,0E0,0E0,0E0,0E0,0E0,0E0,0E0,0E0,0E0,0E0],"parents":[2147483647,0,0,1,1,2,2,3,3,4,4,5,5,6,6,7,7,8,8,9,9,10,10,11,11,12,12,13,13,14,14,15,15,16,16,17,17,18,18,19,19,20,20,21,21,22,22,24,24,25,25,26,26,27,27,28,28,29,29,30,30],"right_children":[2,4,6,8,10,12,14,16,18,20,22,24,26,28,30,32,34,36,38,40,42,44,46,-1,48,50,52,54,56,58,60,-1,-1,-1,-1,-1,-1,-1,-1,-1,-1,-1,-1,-1,-1,-1,-1,-1,-1,-1,-1,-1,-1,-1,-1,-1,-1,-1,-1,-1,-1],"split_conditions":[-2.2567197E-4,5.2869635E2,2.245594E1,1.000196E0,5.482721E2,-3.8002583E-4,-1.8970367E-4,-2.4854825E-4,1.000278E0,-4.892368E-4,1.5849619E-5,0E0,-1.6416318E-4,1.64408E2,-1.832523E-4,9.901606E-1,9.977813E-1,-1.3958414E-3,-1.3948475E-3,9.9886847E-1,3.298697E-4,-2.5626176E-4,9.979034E-1,1.8984391E-1,1.0007329E0,9.9935544E-1,1.0011052E0,1.0017307E0,6.025602E2,1.0637973E2,1.0016755E0,8.754317E-2,1.1012131E-2,3.3355448E-1,8.710328E-2,-3.5878593E-1,-6.827071E-2,-1.0216249E-1,4.28386E-3,-2.6439622E-1,7.836417E-2,3.5935324E-1,1.5434018E-1,8.165941E-2,-1.4937104E-1,-1.8677074E-1,2.254146E-2,-1.3324265E-1,-3.009721E-1,7.296112E-2,4.5980346E-1,-5.158322E-2,1.4135742E-1,-8.091388E-2,-4.0994045E-1,3.7981816E-2,-2.538343E-1,2.2143926E-1,1.802716E-2,-2.1079413E-3,2.6338816E-2],"split_indices":[4,1,0,2,0,5,4,4,2,5,5,4,5,0,4,2,2,4,5,2,5,4,2,0,2,2,2,2,0,1,2,0,0,0,0,0,0,0,0,0,0,0,0,0,0,0,0,0,0,0,0,0,0,0,0,0,0,0,0,0,0],"split_type":[0,0,0,0,0,0,0,0,0,0,0,0,0,0,0,0,0,0,0,0,0,0,0,0,0,0,0,0,0,0,0,0,0,0,0,0,0,0,0,0,0,0,0,0,0,0,0,0,0,0,0,0,0,0,0,0,0,0,0,0,0],"sum_hessian":[8.945456E3,3.2145715E3,5.730885E3,2.906181E3,3.083906E2,1.003774E2,5.6305073E3,1.8812609E3,1.02492E3,2.206828E1,2.8632233E2,3.7854267E1,6.2523132E1,1.7668161E2,5.4538257E3,1.8181981E3,6.3062763E1,6.8543106E1,9.563769E2,3.974241E0,1.8094038E1,1.4270937E2,1.4361296E2,1.4463896E0,3.640788E1,2.8487184E0,5.9674416E1,8.415319E1,9.252841E1,3.2124195E1,5.4217017E3,6.540442E1,1.7527937E3,5.4504013E0,5.7612362E1,5.468482E0,6.3074627E1,4.634318E1,9.1003375E2,1.4841614E0,2.4900796E0,1.0672354E1,7.421684E0,1.3822672E2,4.4826374E0,1.6869268E1,1.267437E2,3.0325912E1,6.0819654E0,1.4362302E0,1.4124883E0,5.3258713E1,6.4157004E0,7.9443054E1,4.7101316E0,8.3100174E1,9.42824E0,1.4677603E1,1.7446592E1,5.0099766E3,4.1172482E2],"tree_param":{"num_deleted":"0","num_feature":"7","num_nodes":"61","size_leaf_vector":"1"}},{"base_weights":[6.048695E-3,8.318039E-3,-1.8667775E-1,2.1941712E-2,-8.135002E-3,-2.87644E-1,1.7296512E-1,1.3695648E-2,1.2598792E-1,-2.850725E-1,-3.3224681E-3,-7.962886E-2,-5.627966E-1,3.2710084E-1,-3.247142E-1,-4.1292123E-2,2.4931014E-2,-1.5417631E-1,1.9453159E-1,-4.356949E-1,-9.980624E-3,-1.7787818E-2,6.74636E-2,-1.6132669E-1,7.095667E-1,-7.01546E-1,4.360717E-1,7.933555E-2,9.897363E-1,-2.845875E-1,3.5566324E-1,-4.7733663E-3,-1.2219689E-1,4.4081002E-2,4.548675E-3,1.0657562E-1,-8.555202E-2,1.3924208E-1,2.4661139E-2,-5.2990854E-2,-2.4288051E-1,-3.881571E-2,3.8563356E-1,-4.6053515E-3,-1.9406222E-1,-8.714927E-3,3.243402E-2,1.5358526E-1,-8.010993E-2,2.7886665E-1,9.596778E-2,-4.1970268E-1,-1.4517727E-1,2.652121E-1,-4.668554E-2,-1.1295272E-1,2.2872907E-1,3.7306333E-1,9.747677E-2,2.2377102E-1,-4.3901294E-2],"categories":[],"categories_nodes":[],"categories_segments":[],"categories_sizes":[],"default_left":[0,0,0,0,0,0,0,0,0,0,0,0,0,0,0,0,0,0,0,0,0,0,0,0,0,0,0,0,0,0,0,0,0,0,0,0,0,0,0,0,0,0,0,0,0,0,0,0,0,0,0,0,0,0,0,0,0,0,0,0,0],"id":9,"left_children":[1,3,5,7,9,11,13,15,17,19,21,23,25,27,29,31,33,35,37,39,41,43,45,47,49,51,53,55,57,-1,59,-1,-1,-1,-1,-1,-1,-1,-1,-1,-1,-1,-1,-1,-1,-1,-1,-1,-1,-1,-1,-1,-1,-1,-1,-1,-1,-1,-1,-1,-1],"loss_changes":[3.9201343E0,1.9853172E0,3.837557E0,4.155116E0,5.34653E0,4.638412E0,1.9081466E0,2.775172E0,6.8599553E0,2.8348494E0,4.0404353E0,3.1939025E0,5.1652546E0,2.947865E0,2.9083781E0,7.07448E0,4.4422836E0,4.8039346E0,8.629105E0,4.1436605E0,4.074658E0,5.012062E0,2.6299648E0,3.2749748E0,1.0260272E-1,4.053915E0,1.434509E0,4.803395E0,4.2773104E-1,0E0,8.191962E-1,0E0,0E0,0E0,0E0,0E0,0E0,0E0,0E0,0E0,0E0,0E0,0E0,0E0,0E0,0E0,0E0,0E0,0E0,0E0,0E0,0E0,0E0,0E0,0E0,0E0,0E0,0E0,0E0,0E0,0E0],"parents":[2147483647,0,0,1,1,2,2,3,3,4,4,5,5,6,6,7,7,8,8,9,9,10,10,11,11,12,12,13,13,14,14,15,15,16,16,17,17,18,18,19,19,20,20,21,21,22,22,23,23,24,24,25,25,26,26,27,27,28,28,30,30],"right_children":[2,4,6,8,10,12,14,16,18,20,22,24,26,28,30,32,34,36,38,40,42,44,46,48,50,52,54,56,58,-1,60,-1,-1,-1,-1,-1,-1,-1,-1,-1,-1,-1,-1,-1,-1,-1,-1,-1,-1,-1,-1,-1,-1,-1,-1,-1,-1,-1,-1,-1,-1],"split_conditions":[2.7804347E-3,4.887063E1,4.2733246E2,4.7770847E1,4.9098694E1,1.54138E2,7.560725E2,-8.592269E-4,7.7414E1,2.483948E2,7.409847E-4,6.94726E1,2.1780562E-3,6.0426373E1,1.051433E3,-9.013577E-4,-6.6219684E-4,4.7972782E1,-3.567288E-4,1.3156892E2,9.918809E-4,1.079139E3,5.3908726E1,2.5178493E1,1.569448E-3,1.7586638E2,3.90291E2,4.70586E2,6.650235E1,-2.845875E-1,1.072168E3,-4.7733663E-3,-1.2219689E-1,4.4081002E-2,4.548675E-3,1.0657562E-1,-8.555202E-2,1.3924208E-1,2.4661139E-2,-5.2990854E-2,-2.4288051E-1,-3.881571E-2,3.8563356E-1,-4.6053515E-3,-1.9406222E-1,-8.714927E-3,3.243402E-2,1.5358526E-1,-8.010993E-2,2.7886665E-1,9.596778E-2,-4.1970268E-1,-1.4517727E-1,2.652121E-1,-4.668554E-2,-1.1295272E-1,2.2872907E-1,3.7306333E-1,9.747677E-2,2.2377102E-1,-4.3901294E-2],"split_indices":[5,3,0,3,3,0,0,5,0,0,5,3,4,3,0,5,5,3,4,0,4,0,3,3,4,1,0,0,3,0,0,0,0,0,0,0,0,0,0,0,0,0,0,0,0,0,0,0,0,0,0,0,0,0,0,0,0,0,0,0,0],"split_type":[0,0,0,0,0,0,0,0,0,0,0,0,0,0,0,0,0,0,0,0,0,0,0,0,0,0,0,0,0,0,0,0,0,0,0,0,0,0,0,0,0,0,0,0,0,0,0,0,0,0,0,0,0,0,0,0,0,0,0,0,0],"sum_hessian":[8.958576E3,8.855263E3,1.0331337E2,4.8439634E3,4.0112988E3,8.0823235E1,2.249014E1,4.489301E3,3.5466278E2,6.752174E1,3.943777E3,4.6761204E1,3.4062027E1,1.743356E1,5.0565805E0,7.611974E2,3.7281035E3,6.9468605E1,2.8519415E2,4.325455E1,2.4267195E1,3.2752239E3,6.685533E2,4.309552E1,3.6656837E0,3.0169012E1,3.8930159E0,1.3504016E1,3.9295442E0,2.432082E0,2.6244986E0,7.128137E2,4.838367E1,2.7533264E2,3.4527708E3,1.3859427E1,5.560918E1,8.295469E1,2.0223947E2,2.6421206E1,1.6833345E1,2.3043312E1,1.2238822E0,3.2636074E3,1.1616557E1,1.9821764E2,4.7033563E2,5.3264613E0,3.776906E1,1.4574299E0,2.208254E0,5.88366E0,2.428535E1,1.9343935E0,1.9586225E0,8.368406E0,5.135609E0,2.2138433E0,1.7157009E0,1.2032603E0,1.4212383E0],"tree_param":{"num_deleted":"0","num_feature":"7","num_nodes":"61","size_leaf_vector":"1"}},{"base_weights":[-6.433071E-3,-8.455772E-3,1.6696802E-1,-8.241421E-2,-4.2054635E-3,1.2057679E0,4.7507368E-2,-3.608356E-2,-4.9997956E-1,1.1783638E-1,-9.009565E-3,1.4232205E0,4.309368E-2,7.499936E-1,-1.0308354E-2,2.7457926E-1,-7.005077E-2,-1.6852188E-1,-8.538184E-1,8.251577E-2,8.318759E-1,3.3145417E-2,-2.082799E-2,5.367136E-1,4.6145245E-1,3.421989E-1,1.4737853E-1,-5.472147E-1,5.7104103E-2,1.302093E-1,-3.3920065E-1,-2.6333913E-2,1.0300631E-1,-1.9412215E-1,6.7055315E-2,-3.1557786E-1,-6.0904313E-2,-1.2409305E-2,6.625759E-2,2.908601E-1,-7.5163886E-2,-1.4202074E-2,1.5343326E-2,-7.2830595E-2,-4.6246676E-3,2.5865397E-1,-5.6564283E-2,1.5738672E-1,-8.660781E-2,7.0045516E-2,-2.2350092E-1,2.9202238E-1,-4.0427255E-3],"categories":[],"categories_nodes":[],"categories_segments":[],"categories_sizes":[],"default_left":[0,0,0,0,0,0,0,0,0,0,0,0,0,0,0,0,0,0,0,0,0,0,0,0,0,0,0,0,0,0,0,0,0,0,0,0,0,0,0,0,0,0,0,0,0,0,0,0,0,0,0,0,0],"id":10,"left_children":[1,3,5,7,9,11,13,15,17,19,21,23,-1,25,27,29,31,33,35,37,39,41,43,-1,45,-1,47,49,51,-1,-1,-1,-1,-1,-1,-1,-1,-1,-1,-1,-1,-1,-1,-1,-1,-1,-1,-1,-1,-1,-1,-1,-1],"loss_changes":[3.1267095E0,2.768675E0,1.2698629E1,9.242308E0,4.8856325E0,2.2346582E0,3.7942564E0,4.5772157E0,5.453802E0,7.8909225E0,3.9945843E0,2.219141E0,0E0,1.5041203E0,3.1847458E0,1.0075499E1,2.8897438E0,5.0017757E0,2.7310333E0,5.1819754E0,2.4430332E0,2.5459116E0,7.518182E0,0E0,1.134686E0,0E0,7.999492E-1,1.6893029E0,5.077859E0,0E0,0E0,0E0,0E0,0E0,0E0,0E0,0E0,0E0,0E0,0E0,0E0,0E0,0E0,0E0,0E0,0E0,0E0,0E0,0E0,0E0,0E0,0E0,0E0],"parents":[2147483647,0,0,1,1,2,2,3,3,4,4,5,5,6,6,7,7,8,8,9,9,10,10,11,11,13,13,14,14,15,15,16,16,17,17,18,18,19,19,20,20,21,21,22,22,24,24,26,26,27,27,28,28],"right_children":[2,4,6,8,10,12,14,16,18,20,22,24,-1,26,28,30,32,34,36,38,40,42,44,-1,46,-1,48,50,52,-1,-1,-1,-1,-1,-1,-1,-1,-1,-1,-1,-1,-1,-1,-1,-1,-1,-1,-1,-1,-1,-1,-1,-1],"split_conditions":[1.059964E3,2.848216E1,-1.5159171E-3,9.155646E-4,3.2043926E1,1.6501427E-3,-1.7521197E-3,-2.0982688E-3,2.0970728E1,1.0503025E-3,-4.6781436E-4,1.079139E3,4.309368E-2,6.5832783E-4,-9.2471944E-4,5.125577E-4,5.28626E2,1.2300684E2,2.784813E-3,-3.019506E-4,1.5013146E-3,7.0436E1,-4.2127617E-4,5.367136E-1,1.1835968E-3,3.421989E-1,1.079139E3,-6.2335323E-4,-7.551616E-4,1.302093E-1,-3.3920065E-1,-2.6333913E-2,1.0300631E-1,-1.9412215E-1,6.7055315E-2,-3.1557786E-1,-6.0904313E-2,-1.2409305E-2,6.625759E-2,2.908601E-1,-7.5163886E-2,-1.4202074E-2,1.5343326E-2,-7.2830595E-2,-4.6246676E-3,2.5865397E-1,-5.6564283E-2,1.5738672E-1,-8.660781E-2,7.0045516E-2,-2.2350092E-1,2.9202238E-1,-4.0427255E-3],"split_indices":[0,3,6,6,3,4,4,4,3,6,4,0,0,5,6,6,0,0,6,4,4,0,4,0,5,0,0,4,6,0,0,0,0,0,0,0,0,0,0,0,0,0,0,0,0,0,0,0,0,0,0,0,0],"split_type":[0,0,0,0,0,0,0,0,0,0,0,0,0,0,0,0,0,0,0,0,0,0,0,0,0,0,0,0,0,0,0,0,0,0,0,0,0,0,0,0,0,0,0,0,0,0,0,0,0,0,0,0,0],"sum_hessian":[8.90962E3,8.807829E3,1.01790924E2,4.7766818E2,8.33016E3,9.560633E0,9.223029E1,4.3093997E2,4.6728203E1,3.1460135E2,8.015559E3,7.6536846E0,1.9069476E0,6.103079E0,8.612721E1,4.177586E1,3.8916412E2,2.4889393E1,2.1838808E1,3.008358E2,1.3765551E1,1.7547522E3,6.260807E3,4.9215326E0,2.732152E0,3.1609871E0,2.9420917E0,8.813635E0,7.731358E1,3.813937E1,3.6364899E0,3.7391632E2,1.5247791E1,1.09151E1,1.3974293E1,1.6269846E1,5.568963E0,1.5908392E2,1.4175188E2,1.2304955E1,1.4605962E0,3.2039954E2,1.4343527E3,1.4800255E2,6.1128047E3,1.4882251E0,1.2439269E0,1.4685702E0,1.4735215E0,1.745078E0,7.068557E0,4.6144786E0,7.2699104E1],"tree_param":{"num_deleted":"0","num_feature":"7","num_nodes":"53","size_leaf_vector":"1"}},{"base_weights":[1.9645304E-3,3.3880886E-2,-1.369678E-2,1.4627956E-2,1.2091681E-1,-1.6049133E-1,-8.384363E-3,1.1984611E-1,-2.851737E-3,4.985458E-2,2.2883259E-1,-2.813039E-1,6.459795E-3,-7.996769E-2,-1.5270457E-3,2.6019057E-2,2.4455819E-1,2.4627317E-2,-6.273659E-2,1.313346E-1,-1.7342173E-1,3.826162E-1,5.4139663E-2,-2.253662E-1,-8.9716285E-1,7.704698E-2,-5.354841E-1,-4.1028902E-1,-3.4401126E-2,2.3138922E-1,-5.6420397E-3,4.1599515E-1,-2.1748987E-3,-3.8475741E-3,1.4097942E-1,-1.9017927E-3,5.3792898E-2,-3.490423E-2,1.8322933E-2,1.01585194E-1,8.5670396E-4,-1.0176747E-1,6.4672016E-2,6.2842794E-2,2.4371108E-1,3.9284382E-2,-1.8945369E-1,-8.205195E-2,2.196634E-1,-5.434271E-2,-3.2460976E-1,1.5867312E-1,-4.04331E-3,-2.4494733E-1,1.684748E-1,7.640816E-2,-1.726503E-1,2.946874E-2,-3.561282E-2,5.3159457E-2,3.5911334E-1,1.6734928E-2,-5.881993E-3],"categories":[],"categories_nodes":[],"categories_segments":[],"categories_sizes":[],"default_left":[0,0,0,0,0,0,0,0,0,0,0,0,0,0,0,0,0,0,0,0,0,0,0,0,0,0,0,0,0,0,0,0,0,0,0,0,0,0,0,0,0,0,0,0,0,0,0,0,0,0,0,0,0,0,0,0,0,0,0,0,0,0,0],"id":11,"left_children":[1,3,5,7,9,11,13,15,17,19,21,23,25,27,29,31,33,35,37,39,41,43,45,47,49,51,53,55,57,59,61,-1,-1,-1,-1,-1,-1,-1,-1,-1,-1,-1,-1,-1,-1,-1,-1,-1,-1,-1,-1,-1,-1,-1,-1,-1,-1,-1,-1,-1,-1,-1,-1],"loss_changes":[4.48543E0,4.9479494E0,4.693068E0,4.4510026E0,4.0906897E0,4.241271E0,2.8521116E0,4.027886E0,3.4180095E0,5.913649E0,5.677474E0,3.9995346E0,3.4543605E0,7.631253E0,5.084564E0,8.966694E0,8.585461E0,6.8213315E0,4.3435545E0,6.332058E0,5.6846123E0,8.211014E0,5.3736453E0,5.416103E0,1.1039028E0,3.2718992E0,3.6669967E0,6.901328E0,5.015083E0,4.607348E0,4.472286E0,0E0,0E0,0E0,0E0,0E0,0E0,0E0,0E0,0E0,0E0,0E0,0E0,0E0,0E0,0E0,0E0,0E0,0E0,0E0,0E0,0E0,0E0,0E0,0E0,0E0,0E0,0E0,0E0,0E0,0E0,0E0,0E0],"parents":[2147483647,0,0,1,1,2,2,3,3,4,4,5,5,6,6,7,7,8,8,9,9,10,10,11,11,12,12,13,13,14,14,15,15,16,16,17,17,18,18,19,19,20,20,21,21,22,22,23,23,24,24,25,25,26,26,27,27,28,28,29,29,30,30],"right_children":[2,4,6,8,10,12,14,16,18,20,22,24,26,28,30,32,34,36,38,40,42,44,46,48,50,52,54,56,58,60,62,-1,-1,-1,-1,-1,-1,-1,-1,-1,-1,-1,-1,-1,-1,-1,-1,-1,-1,-1,-1,-1,-1,-1,-1,-1,-1,-1,-1,-1,-1,-1,-1],"split_conditions":[9.993283E-1,9.9911565E-1,9.994073E-1,-1.1726995E-3,7.1797076E-6,1.6593654E-5,-8.415584E-4,8.3603896E-5,2.593361E-4,9.992739E-1,3.965781E-4,5.482721E2,4.65011E2,9.996136E-1,9.994441E-1,1.95735E1,9.972872E-1,3.0512922E-5,3.3884522E-4,-2.3351755E-4,-1.899191E-4,2.6029805E-4,8.0450525E-4,4.94185E2,-4.9704144E-4,1.1372683E-4,9.08611E2,-6.2335323E-4,-1.3979203E-3,1.1496895E-3,-3.1683448E-4,4.1599515E-1,-2.1748987E-3,-3.8475741E-3,1.4097942E-1,-1.9017927E-3,5.3792898E-2,-3.490423E-2,1.8322933E-2,1.01585194E-1,8.5670396E-4,-1.0176747E-1,6.4672016E-2,6.2842794E-2,2.4371108E-1,3.9284382E-2,-1.8945369E-1,-8.205195E-2,2.196634E-1,-5.434271E-2,-3.2460976E-1,1.5867312E-1,-4.04331E-3,-2.4494733E-1,1.684748E-1,7.640816E-2,-1.726503E-1,2.946874E-2,-3.561282E-2,5.3159457E-2,3.5911334E-1,1.6734928E-2,-5.881993E-3],"split_indices":[2,2,2,6,6,6,6,4,4,2,6,0,0,2,2,1,2,4,6,4,6,6,4,0,4,6,1,4,6,6,6,0,0,0,0,0,0,0,0,0,0,0,0,0,0,0,0,0,0,0,0,0,0,0,0,0,0,0,0,0,0,0,0],"split_type":[0,0,0,0,0,0,0,0,0,0,0,0,0,0,0,0,0,0,0,0,0,0,0,0,0,0,0,0,0,0,0,0,0,0,0,0,0,0,0,0,0,0,0,0,0,0,0,0,0,0,0,0,0,0,0,0,0,0,0,0,0,0,0],"sum_hessian":[8.971588E3,2.9528267E3,6.018761E3,2.4189146E3,5.3391205E2,2.0918825E2,5.8095728E3,3.4376733E2,2.0751472E3,3.228067E2,2.1110535E2,1.2096682E2,8.8221436E1,5.0694345E2,5.3026294E3,1.9686484E2,1.4690251E2,1.4228433E3,6.5230396E2,2.368024E2,8.600431E1,1.1163869E2,9.946667E1,1.1214662E2,8.8202E0,7.8813896E1,9.407533E0,6.048333E1,4.464601E2,9.109775E1,5.2115317E3,3.727713E0,1.9313712E2,6.9021194E1,7.788132E1,1.1863091E3,2.365341E2,4.5524426E2,1.970597E2,8.99864E1,1.4681601E2,6.039136E1,2.5612947E1,8.063837E1,3.1000322E1,9.017417E1,9.292496E0,1.07458725E2,4.6878943E0,2.216251E0,6.603949E0,1.2345805E1,6.6468094E1,7.6928153E0,1.7147173E0,1.1928634E1,4.8554695E1,1.734425E2,2.730176E2,8.737775E1,3.72E0,9.647886E2,4.246743E3],"tree_param":{"num_deleted":"0","num_feature":"7","num_nodes":"63","size_leaf_vector":"1"}},{"base_weights":[-1.0180836E-2,-1.1515198E-2,3.3431816E-1,-8.251365E-3,-1.4743116E-1,1.1735879E-1,9.277516E-1,4.6296816E-2,-1.2586222E-2,-7.423568E-2,-5.005786E-1,3.7772924E-1,-4.6075436E-1,1.4185611E0,-9.3792655E-2,1.1157608E-1,-1.0906915E-1,-6.2464423E-2,-6.689863E-3,-5.2303666E-1,7.007122E-3,-6.275755E-1,2.0875655E-1,7.267654E-1,-1.01090044E-1,-8.2632554E-1,1.3372447E-1,5.8086272E-2,5.818616E-1,1.6393699E-2,1.3961002E-1,4.5831677E-2,-7.43768E-2,-8.117804E-3,-9.359501E-2,4.5982257E-2,-3.199267E-3,8.7463945E-2,-2.2600022E-1,1.2817198E-1,-1.6944308E-2,-7.2012596E-2,-2.5608933E-1,-9.612737E-2,2.969804E-1,-1.9371115E-1,9.623487E-2,1.7068383E-1,-4.0263507E-1],"categories":[],"categories_nodes":[],"categories_segments":[],"categories_sizes":[],"default_left":[0,0,0,0,0,0,0,0,0,0,0,0,0,0,0,0,0,0,0,0,0,0,0,0,0,0,0,0,0,0,0,0,0,0,0,0,0,0,0,0,0,0,0,0,0,0,0,0,0],"id":12,"left_children":[1,3,5,7,9,11,13,15,17,19,21,23,25,27,-1,29,31,33,35,37,39,41,-1,43,45,47,-1,-1,-1,-1,-1,-1,-1,-1,-1,-1,-1,-1,-1,-1,-1,-1,-1,-1,-1,-1,-1,-1,-1],"loss_changes":[4.1152587E0,3.9514961E0,4.3385096E0,2.058363E0,5.3624887E0,4.153825E0,5.985359E0,6.5120378E0,2.370798E0,6.3554816E0,5.8594437E0,3.2119048E0,3.2383995E0,3.9019623E0,0E0,9.073723E0,6.9499106E0,7.5204687E0,4.586303E0,5.2311797E0,3.985813E0,2.667653E0,0E0,3.344142E0,2.227936E0,5.457382E0,0E0,0E0,0E0,0E0,0E0,0E0,0E0,0E0,0E0,0E0,0E0,0E0,0E0,0E0,0E0,0E0,0E0,0E0,0E0,0E0,0E0,0E0,0E0],"parents":[2147483647,0,0,1,1,2,2,3,3,4,4,5,5,6,6,7,7,8,8,9,9,10,10,11,11,12,12,13,13,15,15,16,16,17,17,18,18,19,19,20,20,21,21,23,23,24,24,25,25],"right_children":[2,4,6,8,10,12,14,16,18,20,22,24,26,28,-1,30,32,34,36,38,40,42,-1,44,46,48,-1,-1,-1,-1,-1,-1,-1,-1,-1,-1,-1,-1,-1,-1,-1,-1,-1,-1,-1,-1,-1,-1,-1],"split_conditions":[4.6803644E-3,1.8564357E-3,2.1780562E-3,-1.1370863E-3,6.1105698E1,4.4474375E-5,6.39662E1,4.512666E1,-6.363978E-4,3.2645638E1,2.4533384E-3,3.1218457E-5,5.662041E1,3.788959E1,-9.3792655E-2,4.2606327E1,-1.4665672E-4,-6.7417894E-4,-5.777311E-4,1.7036148E1,3.836284E1,1.4162224E2,2.0875655E-1,-4.932986E-3,4.4026714E1,3.9143745E1,1.3372447E-1,5.8086272E-2,5.818616E-1,1.6393699E-2,1.3961002E-1,4.5831677E-2,-7.43768E-2,-8.117804E-3,-9.359501E-2,4.5982257E-2,-3.199267E-3,8.7463945E-2,-2.2600022E-1,1.2817198E-1,-1.6944308E-2,-7.2012596E-2,-2.5608933E-1,-9.612737E-2,2.969804E-1,-1.9371115E-1,9.623487E-2,1.7068383E-1,-4.0263507E-1],"split_indices":[6,6,4,4,3,4,3,3,4,3,5,5,3,3,0,3,6,4,4,3,3,0,0,5,3,3,0,0,0,0,0,0,0,0,0,0,0,0,0,0,0,0,0,0,0,0,0,0,0],"split_type":[0,0,0,0,0,0,0,0,0,0,0,0,0,0,0,0,0,0,0,0,0,0,0,0,0,0,0,0,0,0,0,0,0,0,0,0,0,0,0,0,0,0,0,0,0,0,0,0,0],"sum_hessian":[8.942935E3,8.909392E3,3.3542572E1,8.701498E3,2.0789368E2,2.5439608E1,8.102963E0,6.3987506E2,8.061623E3,1.7320447E2,3.468921E1,1.7778948E1,7.66066E0,5.702795E0,2.4001684E0,4.507625E2,1.8911256E2,8.512422E2,7.210381E3,2.5714521E1,1.4748994E2,3.1790253E1,2.8989553E0,9.983574E0,7.795373E0,5.5221524E0,2.1385078E0,2.1109965E0,3.5917988E0,3.8927634E2,6.1486168E1,6.5498764E1,1.236138E2,7.464363E2,1.048059E2,1.7389061E2,7.03649E3,5.609003E0,2.0105516E1,1.8605999E1,1.2888394E2,1.2471635E1,1.9318617E1,1.9613814E0,8.022193E0,3.1711001E0,4.624273E0,1.4626012E0,4.0595512E0],"tree_param":{"num_deleted":"0","num_feature":"7","num_nodes":"49","size_leaf_vector":"1"}},{"base_weights":[-2.5241168E-3,3.520036E-5,-9.561041E-2,-3.0524072E-3,1.254624E-1,4.599382E-1,-1.5004759E-1,-1.8592895E-3,-2.6043394E-1,-5.447515E-1,1.5417555E-1,-1.3107522E-1,5.8253866E-1,-8.153063E-1,-1.14911236E-1,1.04971025E-2,-2.0688312E-2,3.0933824E-1,-4.750903E-1,-7.4497837E-1,5.503981E-2,9.622547E-1,1.2699331E-1,8.365855E-1,-1.3685267E-2,-1.4386229E-1,-1.1087952E0,-5.999884E-2,-5.3451675E-1,2.08471E-3,5.1524796E-2,-3.238402E-2,-2.2002595E-4,-4.6680037E-2,2.517946E-1,-7.9332896E-2,-2.499714E-1,-5.787692E-2,-3.427425E-1,3.2581896E-1,7.33349E-2,5.5046245E-2,-5.9363417E-2,3.4870708E-1,7.550635E-2,-1.463005E-1,1.0719446E-1,-2.9758632E-1,1.8122986E-1,-4.7137648E-1,-1.3547957E-1,-3.8806297E-2,8.717978E-2,-2.5948054E-1,3.970932E-2],"categories":[],"categories_nodes":[],"categories_segments":[],"categories_sizes":[],"default_left":[0,0,0,0,0,0,0,0,0,0,0,0,0,0,0,0,0,0,0,0,0,0,0,0,0,0,0,0,0,0,0,0,0,0,0,0,0,0,0,0,0,0,0,0,0,0,0,0,0,0,0,0,0,0,0],"id":13,"left_children":[1,3,5,7,9,11,13,15,17,19,21,-1,23,25,27,29,31,33,35,37,-1,39,41,43,45,47,49,51,53,-1,-1,-1,-1,-1,-1,-1,-1,-1,-1,-1,-1,-1,-1,-1,-1,-1,-1,-1,-1,-1,-1,-1,-1,-1,-1],"loss_changes":[2.1423411E0,3.3900907E0,7.3460655E0,2.623114E0,4.1312447E0,2.6427445E0,5.046501E0,1.9790039E0,4.9675493E0,1.4286342E0,4.3247504E0,0E0,2.9706259E0,1.9820914E0,4.8074765E0,2.9371984E0,5.868321E0,2.9374833E0,1.9692435E0,1.3480086E0,0E0,3.065219E-1,3.6522102E0,2.3208284E0,1.3737266E0,3.4249444E0,1.5434809E0,4.5811687E0,5.4424143E0,0E0,0E0,0E0,0E0,0E0,0E0,0E0,0E0,0E0,0E0,0E0,0E0,0E0,0E0,0E0,0E0,0E0,0E0,0E0,0E0,0E0,0E0,0E0,0E0,0E0,0E0],"parents":[2147483647,0,0,1,1,2,2,3,3,4,4,5,5,6,6,7,7,8,8,9,9,10,10,12,12,13,13,14,14,15,15,16,16,17,17,18,18,19,19,21,21,22,22,23,23,24,24,25,25,26,26,27,27,28,28],"right_children":[2,4,6,8,10,12,14,16,18,20,22,-1,24,26,28,30,32,34,36,38,-1,40,42,44,46,48,50,52,54,-1,-1,-1,-1,-1,-1,-1,-1,-1,-1,-1,-1,-1,-1,-1,-1,-1,-1,-1,-1,-1,-1,-1,-1,-1,-1],"split_conditions":[9.60184E2,6.495015E2,-1.2489818E-3,6.43699E2,-1.7521197E-3,9.9616176E-1,-1.0219724E-3,1.1262875E-4,-5.777311E-4,4.6441994E1,-1.2933658E-3,-1.3107522E-1,1.0000508E0,3.770993E1,5.9436066E1,6.758012E1,4.1747536E1,-8.392175E-4,5.2471397E1,3.6224575E1,5.503981E-2,9.059665E2,1.0011514E0,-1.5140591E-3,4.6678677E1,3.2043926E1,1.059964E3,5.3908726E1,1.0015837E0,2.08471E-3,5.1524796E-2,-3.238402E-2,-2.2002595E-4,-4.6680037E-2,2.517946E-1,-7.9332896E-2,-2.499714E-1,-5.787692E-2,-3.427425E-1,3.2581896E-1,7.33349E-2,5.5046245E-2,-5.9363417E-2,3.4870708E-1,7.550635E-2,-1.463005E-1,1.0719446E-1,-2.9758632E-1,1.8122986E-1,-4.7137648E-1,-1.3547957E-1,-3.8806297E-2,8.717978E-2,-2.5948054E-1,3.970932E-2],"split_indices":[0,1,4,0,4,2,4,4,4,3,4,0,2,3,3,3,3,4,3,3,0,0,2,4,3,3,0,3,2,0,0,0,0,0,0,0,0,0,0,0,0,0,0,0,0,0,0,0,0,0,0,0,0,0,0],"split_type":[0,0,0,0,0,0,0,0,0,0,0,0,0,0,0,0,0,0,0,0,0,0,0,0,0,0,0,0,0,0,0,0,0,0,0,0,0,0,0,0,0,0,0,0,0,0,0,0,0,0,0,0,0,0,0],"sum_hessian":[8.991452E3,8.751829E3,2.3962343E2,8.542516E3,2.0931316E2,2.0720026E1,2.189034E2,8.504102E3,3.841439E1,7.8606243E0,2.0145253E2,2.1834855E0,1.8536541E1,9.867711E0,2.0903569E2,5.134844E3,3.369257E3,1.03912735E1,2.8023117E1,6.1473618E0,1.7132624E0,5.4364524E0,1.9601608E2,1.271544E1,5.821101E0,3.4545557E0,6.4131546E0,1.8585628E2,2.317941E1,5.025314E3,1.0953007E2,6.262765E2,2.7429807E3,5.911571E0,4.479702E0,1.8739626E1,9.283491E0,3.1951652E0,2.9521966E0,4.199142E0,1.2373103E0,1.6734967E2,2.8666409E1,7.532674E0,5.182766E0,2.4177537E0,3.4033475E0,1.4660428E0,1.9885131E0,2.9479096E0,3.4652452E0,1.5568887E2,3.0167398E1,1.5301181E1,7.8782306E0],"tree_param":{"num_deleted":"0","num_feature":"7","num_nodes":"55","size_leaf_vector":"1"}},{"base_weights":[-1.0845201E-3,6.411825E-2,-5.46219E-3,4.1757712E-1,3.3611845E-2,-1.2811726E-1,-3.2391092E-3,6.251584E-1,1.0954985E-1,-7.348249E-3,2.984353E-1,2.3102818E-1,-2.4937624E-1,2.051952E-2,-1.5010933E-2,3.790587E-1,1.2433887E0,-1.0227416E-1,7.524492E-1,-1.0972743E-1,1.0219499E-1,4.151141E-1,-6.342222E-1,-4.9858253E-2,7.701122E-1,-2.0937912E-1,-9.562157E-1,1.0954609E-1,-9.014051E-5,-2.747456E-2,4.2291045E-2,2.6384377E-1,3.8750372E-3,1.7979112E-1,4.6356925E-1,-2.6046714E-1,8.905432E-2,9.955129E-2,2.9200706E-1,-2.5594061E-2,-3.373295E-1,-1.7932374E-2,9.388704E-2,1.01629935E-1,3.6849606E-1,5.728071E-2,-3.0604511E-1,3.411176E-2,-3.2443255E-1,3.127256E-1,6.921495E-4,-7.417318E-2,1.040448E-1,-2.4752887E-3,-3.5652518E-1,-7.761177E-2,4.327155E-2,4.178036E-3,-7.386207E-2,-1.2829413E-1,-7.433674E-3,2.2800785E-2,-5.672694E-2],"categories":[],"categories_nodes":[],"categories_segments":[],"categories_sizes":[],"default_left":[0,0,0,0,0,0,0,0,0,0,0,0,0,0,0,0,0,0,0,0,0,0,0,0,0,0,0,0,0,0,0,0,0,0,0,0,0,0,0,0,0,0,0,0,0,0,0,0,0,0,0,0,0,0,0,0,0,0,0,0,0,0,0],"id":14,"left_children":[1,3,5,7,9,11,13,15,17,19,21,23,25,27,29,31,33,35,37,39,41,43,45,47,49,51,53,55,57,59,61,-1,-1,-1,-1,-1,-1,-1,-1,-1,-1,-1,-1,-1,-1,-1,-1,-1,-1,-1,-1,-1,-1,-1,-1,-1,-1,-1,-1,-1,-1,-1,-1],"loss_changes":[2.553339E0,6.054532E0,2.2852223E0,2.78504E0,5.6337857E0,6.5550785E0,2.3032594E0,3.5527E0,2.688827E0,5.064747E0,7.8337836E0,5.8193483E0,2.9667377E0,5.00635E0,3.9339435E0,3.7184203E0,4.5271683E-1,4.9370413E0,1.2976861E-1,5.6861124E0,7.467565E0,3.4603815E0,2.7841425E0,4.516529E0,2.7446551E0,2.3455124E0,1.2490234E0,6.590112E0,7.650325E0,4.868987E0,7.6909733E0,0E0,0E0,0E0,0E0,0E0,0E0,0E0,0E0,0E0,0E0,0E0,0E0,0E0,0E0,0E0,0E0,0E0,0E0,0E0,0E0,0E0,0E0,0E0,0E0,0E0,0E0,0E0,0E0,0E0,0E0,0E0,0E0],"parents":[2147483647,0,0,1,1,2,2,3,3,4,4,5,5,6,6,7,7,8,8,9,9,10,10,11,11,12,12,13,13,14,14,15,15,16,16,17,17,18,18,19,19,20,20,21,21,22,22,23,23,24,24,25,25,26,26,27,27,28,28,29,29,30,30],"right_children":[2,4,6,8,10,12,14,16,18,20,22,24,26,28,30,32,34,36,38,40,42,44,46,48,50,52,54,56,58,60,62,-1,-1,-1,-1,-1,-1,-1,-1,-1,-1,-1,-1,-1,-1,-1,-1,-1,-1,-1,-1,-1,-1,-1,-1,-1,-1,-1,-1,-1,-1,-1,-1],"split_conditions":[-1.2931664E-3,9.901606E-1,9.921674E-1,-2.919774E-3,-1.3948475E-3,-1.758794E-3,1.1233358E2,3.901697E2,-1.5802328E-3,9.9939376E-1,1.184472E-3,2.49877E2,6.04932E2,-4.5589556E-4,1.0009316E0,-1.1404691E-3,-4.932986E-3,9.3188E1,-7.1991363E-4,9.993283E-1,3.477836E-4,1.0022496E0,1.27617E2,1.89883E2,9.901606E-1,4.6803644E-3,-1.0234462E-3,2.2561674E1,1.0019888E0,1.12659E2,1.1167512E-3,2.6384377E-1,3.8750372E-3,1.7979112E-1,4.6356925E-1,-2.6046714E-1,8.905432E-2,9.955129E-2,2.9200706E-1,-2.5594061E-2,-3.373295E-1,-1.7932374E-2,9.388704E-2,1.01629935E-1,3.6849606E-1,5.728071E-2,-3.0604511E-1,3.411176E-2,-3.2443255E-1,3.127256E-1,6.921495E-4,-7.417318E-2,1.040448E-1,-2.4752887E-3,-3.5652518E-1,-7.761177E-2,4.327155E-2,4.178036E-3,-7.386207E-2,-1.2829413E-1,-7.433674E-3,2.2800785E-2,-5.672694E-2],"split_indices":[5,2,2,5,5,6,0,1,5,2,6,0,0,5,2,6,5,0,6,2,6,2,0,1,2,6,6,1,2,0,6,0,0,0,0,0,0,0,0,0,0,0,0,0,0,0,0,0,0,0,0,0,0,0,0,0,0,0,0,0,0,0,0],"split_type":[0,0,0,0,0,0,0,0,0,0,0,0,0,0,0,0,0,0,0,0,0,0,0,0,0,0,0,0,0,0,0,0,0,0,0,0,0,0,0,0,0,0,0,0,0,0,0,0,0,0,0,0,0,0,0,0,0,0,0,0,0,0,0],"sum_hessian":[8.943166E3,5.6180286E2,8.381363E3,4.362768E1,5.181752E2,1.481969E2,8.233166E3,2.5448345E1,1.8179337E1,4.4960696E2,6.856821E1,3.7177914E1,1.1101899E2,2.7275374E3,5.505629E3,1.9356295E1,6.09205E0,1.4306511E1,3.8728259E0,2.3240211E2,2.1720485E2,6.143711E1,7.131092E0,2.5039005E1,1.2138907E1,1.06300125E2,4.7188635E0,5.119173E2,2.21562E3,4.5224756E3,9.831531E2,7.5860815E0,1.1770213E1,2.8966115E0,3.1954389E0,4.4983845E0,9.808126E0,2.1952293E0,1.6775966E0,2.2800049E2,4.401638E0,1.2322406E2,9.398078E1,5.7459152E1,3.9779596E0,2.4334202E0,4.697672E0,2.2380249E1,2.6587553E0,8.696857E0,3.44205E0,1.0004472E2,6.255399E0,1.1321961E0,3.5866675E0,4.3518723E1,4.683986E2,2.0971272E3,1.184929E2,2.9205713E1,4.49327E3,8.587125E2,1.2444059E2],"tree_param":{"num_deleted":"0","num_feature":"7","num_nodes":"63","size_leaf_vector":"1"}},{"base_weights":[-1.419465E-3,8.77877E-2,-4.535739E-3,1.01698466E-1,-5.0386536E-1,-7.957892E-3,7.453038E-2,3.6118144E-1,6.8841144E-2,-2.9345843E-1,3.5960212E-1,-1.0336741E-1,-4.1630534E-3,1.5947935E-1,-4.2761292E-2,3.5219574E-1,1.7941156E-1,-6.169513E-1,8.699752E-2,-9.7962335E-2,2.5024447E-1,-1.21769406E-1,4.4390082E-1,1.0190262E-1,-8.122652E-3,8.926864E-2,3.1545445E-1,-2.4942254E-1,9.058594E-2,-2.000846E-1,1.0390245E-1,1.7557604E-2,-2.6952687E-1,-1.9248062E-1,3.1443313E-2,-3.149483E-2,-2.6916838E-1,3.2334097E-2,2.3846066E-1,-2.859797E-1,3.459331E-2,5.6100315E-3,-5.3951833E-3,3.847371E-2,-8.737591E-2,-2.8188407E-1,1.0921725E-1,2.6362187E-1,-9.536425E-2,-1.5803026E-1,4.0432826E-2],"categories":[],"categories_nodes":[],"categories_segments":[],"categories_sizes":[],"default_left":[0,0,0,0,0,0,0,0,0,0,0,0,0,0,0,0,0,0,0,0,0,0,0,0,0,0,0,0,0,0,0,0,0,0,0,0,0,0,0,0,0,0,0,0,0,0,0,0,0,0,0],"id":15,"left_children":[1,3,5,7,9,11,13,15,17,-1,19,21,23,25,27,-1,29,31,33,-1,-1,35,37,39,41,43,45,47,49,-1,-1,-1,-1,-1,-1,-1,-1,-1,-1,-1,-1,-1,-1,-1,-1,-1,-1,-1,-1,-1,-1],"loss_changes":[2.4884458E0,2.5380132E0,2.3407695E0,2.4991293E0,3.2632685E0,3.0014217E0,3.5829065E0,4.670431E0,3.3408742E0,0E0,1.3311486E0,3.2476108E0,3.350081E0,2.2536583E0,4.198794E0,0E0,4.212319E0,1.3706827E0,3.4166873E0,0E0,0E0,3.9096622E0,1.1566756E0,4.1714706E0,2.0340695E0,2.189122E0,4.2633967E0,4.890093E0,2.6038597E0,0E0,0E0,0E0,0E0,0E0,0E0,0E0,0E0,0E0,0E0,0E0,0E0,0E0,0E0,0E0,0E0,0E0,0E0,0E0,0E0,0E0,0E0],"parents":[2147483647,0,0,1,1,2,2,3,3,4,4,5,5,6,6,7,7,8,8,10,10,11,11,12,12,13,13,14,14,16,16,17,17,18,18,21,21,22,22,23,23,24,24,25,25,26,26,27,27,28,28],"right_children":[2,4,6,8,10,12,14,16,18,-1,20,22,24,26,28,-1,30,32,34,-1,-1,36,38,40,42,44,46,48,50,-1,-1,-1,-1,-1,-1,-1,-1,-1,-1,-1,-1,-1,-1,-1,-1,-1,-1,-1,-1,-1,-1],"split_conditions":[2.572446E1,6.758012E1,1.5081692E-3,-9.681167E-4,7.211353E1,-1.5822785E-3,5.234745E1,3.2645638E1,-8.5984526E-4,-2.9345843E-1,4.931842E-4,9.60184E2,-1.1370863E-3,4.6678677E1,5.773737E1,3.5219574E-1,3.7378895E1,2.245594E1,1.7036148E1,-9.7962335E-2,2.5024447E-1,7.583176E2,-2.0982688E-3,1.4145945E1,-4.017678E-4,4.555192E1,-3.6109274E-3,4.7276E1,5.637548E1,-2.000846E-1,1.0390245E-1,1.7557604E-2,-2.6952687E-1,-1.9248062E-1,3.1443313E-2,-3.149483E-2,-2.6916838E-1,3.2334097E-2,2.3846066E-1,-2.859797E-1,3.459331E-2,5.6100315E-3,-5.3951833E-3,3.847371E-2,-8.737591E-2,-2.8188407E-1,1.0921725E-1,2.6362187E-1,-9.536425E-2,-1.5803026E-1,4.0432826E-2],"split_indices":[0,3,6,4,3,4,3,3,4,0,6,0,4,3,3,0,3,0,3,0,0,1,4,3,6,3,4,0,0,0,0,0,0,0,0,0,0,0,0,0,0,0,0,0,0,0,0,0,0,0,0],"split_type":[0,0,0,0,0,0,0,0,0,0,0,0,0,0,0,0,0,0,0,0,0,0,0,0,0,0,0,0,0,0,0,0,0,0,0,0,0,0,0,0,0,0,0,0,0,0,0,0,0,0,0],"sum_hessian":[8.949006E3,3.0114648E2,8.647859E3,2.9503778E2,6.1087275E0,8.289951E3,3.5790768E2,3.203741E1,2.6300037E2,3.8570583E0,2.2516692E0,3.1610962E2,7.973842E3,2.0736386E2,1.5054381E2,4.8575773E0,2.7179834E1,5.9327283E0,2.5706763E2,1.0481064E0,1.2035629E0,3.0657834E2,9.53126E0,2.8607306E2,7.6877686E3,1.4407996E2,6.32839E1,5.870008E1,9.1843735E1,3.984159E0,2.3195675E1,1.977997E0,3.9547312E0,5.2993336E0,2.517683E2,3.0119366E2,5.384675E0,5.5362816E0,3.9949782E0,2.7100818E0,2.8336298E2,2.0663613E3,5.6214077E3,1.3129437E2,1.2785587E1,1.6758657E0,6.1608032E1,2.6810718E0,5.601901E1,5.4055552E0,8.643818E1],"tree_param":{"num_deleted":"0","num_feature":"7","num_nodes":"51","size_leaf_vector":"1"}},{"base_weights":[-2.4827565E-3,-4.0561374E-2,3.341233E-3,-8.540527E-2,4.2450026E-2,9.154558E-2,-6.0251392E-3,-9.7516086E-4,-1.364217E-1,1.418663E-1,-9.3490876E-2,8.024548E-2,9.9412847E-1,-4.5607958E-2,8.178106E-3,-1.1568409E-1,6.9595695E-2,-7.9381573E-1,-1.1439658E-1,5.0352942E-2,4.717975E-1,-3.6876022E-3,-5.106667E-1,1.1002973E-1,-1.3992776E-1,4.940794E-1,2.3834482E-1,-2.406129E-1,-3.5373323E-2,2.4125552E-1,2.7903907E-3,1.5111403E-1,-6.0310606E-2,4.2136382E-2,-4.7809474E-2,-3.4290951E-1,1.7947528E-1,2.2049047E-1,-3.7023824E-2,5.399329E-2,-2.9676052E-2,3.424148E-2,3.094453E-1,-2.710818E-1,1.2016499E-2,1.7115726E-1,-2.0097853E-1,-3.4886098E-3,5.3609293E-2,2.179973E-1,-6.565459E-2,-8.5560754E-2,2.920218E-1,9.070511E-2,-9.886023E-2,-1.9587527E-3,-3.1197364E-2,1.941664E-1,2.4335634E-2,-8.3682105E-2,1.8191373E-3],"categories":[],"categories_nodes":[],"categories_segments":[],"categories_sizes":[],"default_left":[0,0,0,0,0,0,0,0,0,0,0,0,0,0,0,0,0,0,0,0,0,0,0,0,0,0,0,0,0,0,0,0,0,0,0,0,0,0,0,0,0,0,0,0,0,0,0,0,0,0,0,0,0,0,0,0,0,0,0,0,0],"id":16,"left_children":[1,3,5,7,9,11,13,15,17,19,21,23,25,27,29,31,33,35,37,39,41,43,45,47,49,-1,51,53,55,57,59,-1,-1,-1,-1,-1,-1,-1,-1,-1,-1,-1,-1,-1,-1,-1,-1,-1,-1,-1,-1,-1,-1,-1,-1,-1,-1,-1,-1,-1,-1],"loss_changes":[1.9769402E0,4.405739E0,6.38857E0,3.3083916E0,5.627766E0,7.491381E0,3.9306917E0,2.3582306E0,6.841751E0,7.2331676E0,6.5949297E0,4.8302646E0,4.09274E0,3.6762135E0,6.461027E0,5.967073E0,2.9486165E0,8.147405E0,3.6474056E0,3.6802652E0,1.030563E1,5.779584E0,5.7517548E0,5.4096627E0,6.172655E0,0E0,2.3489664E0,4.536337E0,3.4735363E0,7.504657E0,4.6408367E0,0E0,0E0,0E0,0E0,0E0,0E0,0E0,0E0,0E0,0E0,0E0,0E0,0E0,0E0,0E0,0E0,0E0,0E0,0E0,0E0,0E0,0E0,0E0,0E0,0E0,0E0,0E0,0E0,0E0,0E0],"parents":[2147483647,0,0,1,1,2,2,3,3,4,4,5,5,6,6,7,7,8,8,9,9,10,10,11,11,12,12,13,13,14,14,15,15,16,16,17,17,18,18,19,19,20,20,21,21,22,22,23,23,24,24,26,26,27,27,28,28,29,29,30,30],"right_children":[2,4,6,8,10,12,14,16,18,20,22,24,26,28,30,32,34,36,38,40,42,44,46,48,50,-1,52,54,56,58,60,-1,-1,-1,-1,-1,-1,-1,-1,-1,-1,-1,-1,-1,-1,-1,-1,-1,-1,-1,-1,-1,-1,-1,-1,-1,-1,-1,-1,-1,-1],"split_conditions":[-7.997867E-4,2.7974995E-4,-5.24109E-4,-6.2335323E-4,-1.2145431E-3,2.4533384E-3,-4.0175216E-4,-1.6652789E-3,-5.8620464E-4,-1.3979203E-3,4.4130197E2,7.7369437E-4,-1.5446931E-4,2.5928242E1,-3.7392497E-4,2.0970728E1,-9.2471944E-4,4.2774976E2,1.9182344E1,1.222067E-3,3.7329103E-4,-1.7518249E-3,-1.45042E-3,-3.246615E-4,3.6817066E1,4.940794E-1,2.74611E2,-2.919774E-3,4.2405823E-4,-3.6525232E-4,-5.070137E-4,1.5111403E-1,-6.0310606E-2,4.2136382E-2,-4.7809474E-2,-3.4290951E-1,1.7947528E-1,2.2049047E-1,-3.7023824E-2,5.399329E-2,-2.9676052E-2,3.424148E-2,3.094453E-1,-2.710818E-1,1.2016499E-2,1.7115726E-1,-2.0097853E-1,-3.4886098E-3,5.3609293E-2,2.179973E-1,-6.565459E-2,-8.5560754E-2,2.920218E-1,9.070511E-2,-9.886023E-2,-1.9587527E-3,-3.1197364E-2,1.941664E-1,2.4335634E-2,-8.3682105E-2,1.8191373E-3],"split_indices":[6,4,6,4,6,5,5,6,4,6,1,4,4,3,5,3,6,1,1,4,5,5,5,4,3,0,1,5,4,4,6,0,0,0,0,0,0,0,0,0,0,0,0,0,0,0,0,0,0,0,0,0,0,0,0,0,0,0,0,0,0],"split_type":[0,0,0,0,0,0,0,0,0,0,0,0,0,0,0,0,0,0,0,0,0,0,0,0,0,0,0,0,0,0,0,0,0,0,0,0,0,0,0,0,0,0,0,0,0,0,0,0,0,0,0,0,0,0,0,0,0,0,0,0,0],"sum_hessian":[8.912781E3,1.1815519E3,7.7312295E3,7.6711633E2,4.1443552E2,7.4132275E2,6.9899067E3,2.8932098E2,4.7779532E2,2.393503E2,1.7508522E2,7.332318E2,8.090962E0,1.8452355E3,5.1446714E3,1.09955414E2,1.7936557E2,1.4353E1,4.6344232E2,1.882796E2,5.1070698E1,1.449018E2,3.0183416E1,6.4630255E2,8.6929245E1,3.70859E0,4.3823724E0,9.089345E1,1.7543419E3,1.15246E2,5.0294253E3,1.2722931E1,9.723248E1,1.3726976E2,4.2095806E1,1.1617509E1,2.7354906E0,4.0221252E0,4.594202E2,1.0066189E2,8.761772E1,3.1893547E1,1.917715E1,5.8056E0,1.390962E2,3.5437064E0,2.663971E1,2.3347942E2,4.1282312E2,6.570865E0,8.035838E1,2.916849E0,1.4655237E0,1.2453105E1,7.8440346E1,1.2359109E3,5.1843115E2,3.1739893E1,8.350611E1,5.679796E1,4.9726274E3],"tree_param":{"num_deleted":"0","num_feature":"7","num_nodes":"61","size_leaf_vector":"1"}},{"base_weights":[2.1696053E-3,-5.896278E-2,8.725926E-3,3.0480787E-2,-9.593614E-2,-1.5091059E-1,1.1656616E-2,-6.9447264E-2,2.7693456E-1,-3.184465E-1,-5.0502975E-2,6.383203E-2,-2.9920372E-1,1.7210113E-1,8.357156E-3,1.0171285E-1,-1.8693916E-1,-1.5097974E-1,4.3946227E-1,-4.740116E-1,1.15096755E-1,6.458957E-2,-1.1373346E-1,-1.7225467E-2,3.1894904E-1,-6.2362015E-1,-1.9836643E-1,8.994454E-1,1.22124314E-1,7.0068655E-3,2.466006E-1,7.154895E-2,-1.4250635E-1,1.0836638E-2,-9.843557E-2,-1.5736118E-1,2.3758684E-1,3.3952704E-1,7.5640075E-2,2.2925606E-2,-1.7437932E-1,1.0583842E-1,-1.4271253E-1,-1.0523467E-1,3.265417E-2,-2.8285906E-3,-9.984261E-2,1.2845692E-1,-3.8312458E-2,-2.1366777E-1,1.2874503E-1,-4.4192757E-2,-3.1080365E-1,4.0826306E-1,-2.4440883E-2,-9.036103E-2,5.9975542E-2,2.77231E-3,-1.0014895E-1,-5.5291895E-2,1.4695677E-1],"categories":[],"categories_nodes":[],"categories_segments":[],"categories_sizes":[],"default_left":[0,0,0,0,0,0,0,0,0,0,0,0,0,0,0,0,0,0,0,0,0,0,0,0,0,0,0,0,0,0,0,0,0,0,0,0,0,0,0,0,0,0,0,0,0,0,0,0,0,0,0,0,0,0,0,0,0,0,0,0,0],"id":17,"left_children":[1,3,5,7,9,11,13,15,17,19,21,23,25,27,29,31,33,35,37,39,41,43,45,47,-1,49,51,53,55,57,59,-1,-1,-1,-1,-1,-1,-1,-1,-1,-1,-1,-1,-1,-1,-1,-1,-1,-1,-1,-1,-1,-1,-1,-1,-1,-1,-1,-1,-1,-1],"loss_changes":[3.58624E0,2.8690295E0,3.7822618E0,6.280453E0,6.185349E0,4.6603746E0,4.1996837E0,3.672793E0,5.1812625E0,7.0570946E0,3.7232234E0,4.9075766E0,2.7023191E0,5.701079E0,2.500138E0,5.9984937E0,3.415726E0,7.808473E0,6.6602077E0,4.5668087E0,4.13115E0,3.3782816E0,7.5356607E0,2.8505573E0,0E0,2.1729612E0,2.728644E0,4.6917934E0,5.024383E0,5.892623E0,4.6814547E0,0E0,0E0,0E0,0E0,0E0,0E0,0E0,0E0,0E0,0E0,0E0,0E0,0E0,0E0,0E0,0E0,0E0,0E0,0E0,0E0,0E0,0E0,0E0,0E0,0E0,0E0,0E0,0E0,0E0,0E0],"parents":[2147483647,0,0,1,1,2,2,3,3,4,4,5,5,6,6,7,7,8,8,9,9,10,10,11,11,12,12,13,13,14,14,15,15,16,16,17,17,18,18,19,19,20,20,21,21,22,22,23,23,25,25,26,26,27,27,28,28,29,29,30,30],"right_children":[2,4,6,8,10,12,14,16,18,20,22,24,26,28,30,32,34,36,38,40,42,44,46,48,-1,50,52,54,56,58,60,-1,-1,-1,-1,-1,-1,-1,-1,-1,-1,-1,-1,-1,-1,-1,-1,-1,-1,-1,-1,-1,-1,-1,-1,-1,-1,-1,-1,-1,-1],"split_conditions":[-9.932762E-4,9.980572E-1,2.245594E1,-1.3979203E-3,3.699648E1,9.995451E-1,2.5788E1,1.31794E2,9.9584407E-1,3.48114E2,4.5012486E1,9.995056E-1,9.9990326E-1,-9.681167E-4,3.327065E-3,1.1465499E-3,2.848216E1,3.292052E1,-1.2957318E-3,-1.2933658E-3,6.04932E2,-1.5140591E-3,-1.2145431E-3,3.3413586E1,3.1894904E-1,1.0227904E-3,6.758012E1,5.856747E-4,3.788959E1,2.4396856E-3,4.1614647E-4,7.154895E-2,-1.4250635E-1,1.0836638E-2,-9.843557E-2,-1.5736118E-1,2.3758684E-1,3.3952704E-1,7.5640075E-2,2.2925606E-2,-1.7437932E-1,1.0583842E-1,-1.4271253E-1,-1.0523467E-1,3.265417E-2,-2.8285906E-3,-9.984261E-2,1.2845692E-1,-3.8312458E-2,-2.1366777E-1,1.2874503E-1,-4.4192757E-2,-3.1080365E-1,4.0826306E-1,-2.4440883E-2,-9.036103E-2,5.9975542E-2,2.77231E-3,-1.0014895E-1,-5.5291895E-2,1.4695677E-1],"split_indices":[6,2,0,6,3,2,0,0,2,0,3,2,2,4,4,4,3,3,6,4,0,4,6,3,0,6,3,6,3,4,6,0,0,0,0,0,0,0,0,0,0,0,0,0,0,0,0,0,0,0,0,0,0,0,0,0,0,0,0,0,0],"split_type":[0,0,0,0,0,0,0,0,0,0,0,0,0,0,0,0,0,0,0,0,0,0,0,0,0,0,0,0,0,0,0,0,0,0,0,0,0,0,0,0,0,0,0,0,0,0,0,0,0,0,0,0,0,0,0,0,0,0,0,0,0],"sum_hessian":[8.945343E3,8.656707E2,8.079672E3,2.5323547E2,6.1243524E2,1.4474649E2,7.9349253E3,1.8069032E2,7.254515E1,1.02827126E2,5.096081E2,5.935882E1,8.538767E1,1.5885878E2,7.7760664E3,7.360221E1,1.0708811E2,1.998866E1,5.2556488E1,7.5605E1,2.7222124E1,1.8069125E2,3.2891687E2,5.581438E1,3.5444381E0,1.9018011E1,6.636966E1,9.120793E0,1.4973799E2,7.733266E3,4.2800365E1,5.9966473E1,1.3635741E1,4.1795692E1,6.529242E1,1.4634654E1,5.354008E0,1.0119004E1,4.2437485E1,1.2376295E1,6.3228706E1,1.9699362E1,7.5227623E0,1.6731842E1,1.6395941E2,2.2353278E2,1.05384094E2,1.0521388E1,4.5292995E1,1.7839993E1,1.1780169E0,6.3664936E1,2.7047255E0,5.9394617E0,3.1813316E0,2.2799505E1,1.26938484E2,7.6838716E3,4.9394516E1,1.5530927E1,2.7269438E1],"tree_param":{"num_deleted":"0","num_feature":"7","num_nodes":"61","size_leaf_vector":"1"}},{"base_weights":[3.8544356E-3,2.1039092E-3,1.5736474E-1,3.9960225E-3,-1.5471505E-1,-5.2236086E-1,2.2068192E-1,-1.6528413E-1,5.2723563E-3,1.2127327E-1,-3.000418E-1,4.2635944E-1,-1.0189356E0,3.191228E-1,-1.7686695E-1,2.8164929E-2,-4.7031033E-1,2.5877735E-1,4.2130994E-3,-3.349185E-1,5.874752E-1,-9.5014316E-1,-2.1664615E-1,2.5564623E-1,-1.697659E-2,-3.1779462E-1,-4.0675676E-1,1.8779084E-1,9.432965E-1,-6.280967E-1,1.6116628E-1,-7.763903E-2,1.0037931E-1,-1.6680568E-1,1.997869E-1,1.3990027E-1,7.3171826E-3,-1.9434735E-2,2.3075973E-3,1.5187924E-2,-2.5096264E-1,3.635408E-1,5.7251208E-2,-3.3188885E-1,-1.1945368E-1,2.3845315E-4,-1.4375575E-1,-2.3607412E-1,7.774217E-2,8.4725656E-2,-1.6747458E-1,3.3491036E-1,-1.6776318E-2,-3.0261233E-1,-7.014225E-2,-7.036134E-3,2.9760388E-1],"categories":[],"categories_nodes":[],"categories_segments":[],"categories_sizes":[],"default_left":[0,0,0,0,0,0,0,0,0,0,0,0,0,0,0,0,0,0,0,0,0,0,0,0,0,0,0,0,0,0,0,0,0,0,0,0,0,0,0,0,0,0,0,0,0,0,0,0,0,0,0,0,0,0,0,0,0],"id":18,"left_children":[1,3,5,7,9,11,13,15,17,19,21,23,25,27,29,31,33,35,37,39,41,43,45,-1,-1,47,-1,49,51,53,55,-1,-1,-1,-1,-1,-1,-1,-1,-1,-1,-1,-1,-1,-1,-1,-1,-1,-1,-1,-1,-1,-1,-1,-1,-1,-1],"loss_changes":[2.40114E0,2.6226764E0,4.451132E0,1.8875879E0,4.262845E0,4.618715E0,3.6906147E0,3.8710628E0,2.3265216E0,8.078588E0,3.552146E0,8.207153E-1,1.0160513E0,5.9535437E0,3.0106173E0,3.687515E0,2.846746E0,1.742496E0,2.0726662E0,3.7880938E0,4.3974805E0,2.1330166E-1,3.5814464E0,0E0,0E0,1.0954907E0,0E0,4.607771E0,2.267726E0,1.0207675E0,1.8180447E0,0E0,0E0,0E0,0E0,0E0,0E0,0E0,0E0,0E0,0E0,0E0,0E0,0E0,0E0,0E0,0E0,0E0,0E0,0E0,0E0,0E0,0E0,0E0,0E0,0E0,0E0],"parents":[2147483647,0,0,1,1,2,2,3,3,4,4,5,5,6,6,7,7,8,8,9,9,10,10,11,11,12,12,13,13,14,14,15,15,16,16,17,17,18,18,19,19,20,20,21,21,22,22,25,25,27,27,28,28,29,29,30,30],"right_children":[2,4,6,8,10,12,14,16,18,20,22,24,26,28,30,32,34,36,38,40,42,44,46,-1,-1,48,-1,50,52,54,56,-1,-1,-1,-1,-1,-1,-1,-1,-1,-1,-1,-1,-1,-1,-1,-1,-1,-1,-1,-1,-1,-1,-1,-1,-1,-1],"split_conditions":[1.059964E3,9.65976E2,3.3176056E1,-3.6109274E-3,-3.4873583E-4,-9.013577E-4,1.0013201E0,3.8044193E1,-2.919774E-3,-7.3632825E-4,3.483435E1,2.5178493E1,2.7332605E1,1.0006806E0,1.0017892E0,-8.9150395E-5,6.650235E1,9.988055E-1,2.7900063E1,9.9928766E-1,3.866063E1,9.985846E-1,1.0000615E0,2.5564623E-1,-1.697659E-2,9.792636E-1,-4.0675676E-1,1.000388E0,5.7895367E1,-4.467184E-4,9.680542E-4,-7.763903E-2,1.0037931E-1,-1.6680568E-1,1.997869E-1,1.3990027E-1,7.3171826E-3,-1.9434735E-2,2.3075973E-3,1.5187924E-2,-2.5096264E-1,3.635408E-1,5.7251208E-2,-3.3188885E-1,-1.1945368E-1,2.3845315E-4,-1.4375575E-1,-2.3607412E-1,7.774217E-2,8.4725656E-2,-1.6747458E-1,3.3491036E-1,-1.6776318E-2,-3.0261233E-1,-7.014225E-2,-7.036134E-3,2.9760388E-1],"split_indices":[0,0,3,4,5,5,2,3,4,5,3,3,3,2,2,5,3,2,3,2,3,2,2,0,0,2,0,2,3,4,4,0,0,0,0,0,0,0,0,0,0,0,0,0,0,0,0,0,0,0,0,0,0,0,0,0,0],"split_type":[0,0,0,0,0,0,0,0,0,0,0,0,0,0,0,0,0,0,0,0,0,0,0,0,0,0,0,0,0,0,0,0,0,0,0,0,0,0,0,0,0,0,0,0,0,0,0,0,0,0,0,0,0,0,0,0,0],"sum_hessian":[8.935576E3,8.835832E3,9.974409E1,8.731457E3,1.0437566E2,7.8817415E0,9.186234E1,6.437893E1,8.667078E3,3.606002E1,6.831564E1,2.756592E0,5.1251497E0,7.3788216E1,1.807413E1,3.995007E1,2.442886E1,3.5051826E1,8.632025E3,1.8368008E1,1.7692013E1,6.585549E0,6.17301E1,1.0586989E0,1.6978931E0,2.2941628E0,2.8309867E0,6.2036106E1,1.175211E1,7.373452E0,1.0700678E1,2.0710752E1,1.9239317E1,2.3190277E1,1.2385812E0,1.8065056E1,1.698677E1,4.1350546E2,8.2185205E3,1.08940115E1,7.473996E0,6.0747976E0,1.1617215E1,4.350487E0,2.2350614E0,3.4310432E1,2.7419666E1,1.0645764E0,1.2295864E0,5.560463E1,6.431476E0,9.91715E0,1.8349601E0,2.9589024E0,4.41455E0,9.550303E0,1.1503744E0],"tree_param":{"num_deleted":"0","num_feature":"7","num_nodes":"57","size_leaf_vector":"1"}},{"base_weights":[-2.20451E-3,3.3874083E-1,-3.5257072E-3,-4.1287133E-1,4.5815992E-1,-3.050914E-1,-2.3885672E-3,5.448102E-2,-2.461905E-1,5.437428E-1,-1.4497411E-1,9.527197E-2,-6.0440105E-1,-5.1847488E-2,3.8863278E-3,8.7301254E-2,-7.440472E-2,2.4206124E-1,1.053225E0,-1.3343728E-1,7.0746547E-1,-7.989079E-1,3.1923306E-1,2.682206E-1,-7.192707E-2,7.771406E-2,-2.475403E-3,1.3435863E-1,-2.519094E-1,3.5952187E-1,-8.733367E-3,-1.4429046E-1,1.8595369E-1,2.8580025E-1,7.696148E-3,4.725122E-2,-2.7056682E-1,-1.5116969E-1,3.3299744E-1,1.3775961E-1,-5.1073123E-2,-3.283041E-2,2.753788E-2,6.6078745E-2,8.634692E-3,-4.2571206E-2,6.5804226E-4],"categories":[],"categories_nodes":[],"categories_segments":[],"categories_sizes":[],"default_left":[0,0,0,0,0,0,0,0,0,0,0,0,0,0,0,0,0,0,0,0,0,0,0,0,0,0,0,0,0,0,0,0,0,0,0,0,0,0,0,0,0,0,0,0,0,0,0],"id":19,"left_children":[1,3,5,7,9,11,13,15,-1,17,-1,19,21,23,25,-1,-1,27,29,31,33,35,37,39,41,43,45,-1,-1,-1,-1,-1,-1,-1,-1,-1,-1,-1,-1,-1,-1,-1,-1,-1,-1,-1,-1],"loss_changes":[4.0263762E0,3.2861066E0,3.0520658E0,1.0464339E0,2.6997318E0,4.064142E0,2.752957E0,3.1450662E-1,0E0,4.0789995E0,0E0,2.2179532E0,3.7165904E0,6.4377623E0,3.6975253E0,0E0,0E0,4.607921E0,1.635849E0,3.4089518E0,6.917198E-1,1.7377996E0,3.2060506E0,5.032614E0,5.785617E0,4.350045E0,4.7189674E0,0E0,0E0,0E0,0E0,0E0,0E0,0E0,0E0,0E0,0E0,0E0,0E0,0E0,0E0,0E0,0E0,0E0,0E0,0E0,0E0],"parents":[2147483647,0,0,1,1,2,2,3,3,4,4,5,5,6,6,7,7,9,9,11,11,12,12,13,13,14,14,17,17,18,18,19,19,20,20,21,21,22,22,23,23,24,24,25,25,26,26],"right_children":[2,4,6,8,10,12,14,16,-1,18,-1,20,22,24,26,-1,-1,28,30,32,34,36,38,40,42,44,46,-1,-1,-1,-1,-1,-1,-1,-1,-1,-1,-1,-1,-1,-1,-1,-1,-1,-1,-1,-1],"split_conditions":[1.0283067E1,4.401799E1,1.4145945E1,9.792636E-1,1.3728406E-3,1.139415E2,-9.013069E-4,-4.4022562E-4,-2.461905E-1,-1.4648489E-4,-1.4497411E-1,9.876013E-1,1.1835968E-3,4.022397E1,9.979579E-1,8.7301254E-2,-7.440472E-2,9.921674E-1,5.513879E-4,3.3704605E-4,9.966719E-1,-2.919774E-3,2.276467E2,1.0004262E0,1.0011266E0,-2.2567197E-4,9.983022E-1,1.3435863E-1,-2.519094E-1,3.5952187E-1,-8.733367E-3,-1.4429046E-1,1.8595369E-1,2.8580025E-1,7.696148E-3,4.725122E-2,-2.7056682E-1,-1.5116969E-1,3.3299744E-1,1.3775961E-1,-5.1073123E-2,-3.283041E-2,2.753788E-2,6.6078745E-2,8.634692E-3,-4.2571206E-2,6.5804226E-4],"split_indices":[3,1,3,2,5,1,4,4,0,5,0,2,5,1,2,0,0,2,4,4,2,4,1,2,2,4,2,0,0,0,0,0,0,0,0,0,0,0,0,0,0,0,0,0,0,0,0],"split_type":[0,0,0,0,0,0,0,0,0,0,0,0,0,0,0,0,0,0,0,0,0,0,0,0,0,0,0,0,0,0,0,0,0,0,0,0,0,0,0,0,0,0,0,0,0,0,0],"sum_hessian":[8.934794E3,3.3503727E1,8.90129E3,4.2564855E0,2.924724E1,3.243464E1,8.868855E3,2.3870237E0,1.8694617E0,2.7197172E1,2.050068E0,1.416667E1,1.8267967E1,9.976988E2,7.8711562E3,1.3609134E0,1.0261103E0,1.8008718E1,9.188454E0,1.0882946E1,3.2837236E0,1.5201701E1,3.0662673E0,5.8166595E1,9.395322E2,6.2355853E2,7.2475977E3,1.5622568E1,2.3861501E0,8.007158E0,1.1812953E0,7.694536E0,3.18841E0,2.1229734E0,1.1607504E0,1.4262607E0,1.377544E1,1.680124E0,1.3861431E0,4.0485424E1,1.7681171E1,7.6467883E2,1.7485341E2,1.5845238E2,4.6510617E2,2.3387576E2,7.013722E3],"tree_param":{"num_deleted":"0","num_feature":"7","num_nodes":"47","size_leaf_vector":"1"}},{"base_weights":[-1.0902549E-3,2.062679E-3,-1.1710905E-1,2.4276117E-2,-1.3448139E-2,-1.451222E-1,8.223074E-1,1.7207196E-2,3.1721586E-1,-1.07665375E-1,3.8616797E-3,-1.0988246E-1,-6.948372E-1,4.1035002E-1,-1.302238E-1,9.5199004E-2,-2.8295189E-3,-2.3460662E-1,5.4626626E-1,-3.1845698E-1,-6.64318E-2,1.7297748E-2,-8.6135015E-2,-1.3371363E-1,3.4850278E-1,1.3652724E-1,-9.480878E-1,-4.952193E-3,4.533406E-2,7.12156E-2,-3.8114202E-3,1.23598345E-1,-1.473889E-1,-3.537052E-2,1.8262114E-1,-7.700607E-2,-4.0135783E-1,6.274618E-2,-2.7103849E-2,2.4837179E-3,4.143979E-2,-7.903745E-2,-1.4413282E-2,-2.9927514E-2,-2.5287843E-1,-1.1320632E-1,2.3859052E-1,-3.6985916E-1,-3.8832787E-2],"categories":[],"categories_nodes":[],"categories_segments":[],"categories_sizes":[],"default_left":[0,0,0,0,0,0,0,0,0,0,0,0,0,0,0,0,0,0,0,0,0,0,0,0,0,0,0,0,0,0,0,0,0,0,0,0,0,0,0,0,0,0,0,0,0,0,0,0,0],"id":20,"left_children":[1,3,5,7,9,11,13,15,17,19,21,23,25,-1,-1,27,29,31,33,35,37,39,41,43,45,-1,47,-1,-1,-1,-1,-1,-1,-1,-1,-1,-1,-1,-1,-1,-1,-1,-1,-1,-1,-1,-1,-1,-1],"loss_changes":[3.2613776E0,2.9910786E0,6.326871E0,7.385808E0,8.337277E0,4.3773074E0,5.378012E0,5.4482946E0,1.0751002E1,6.8751297E0,5.2245584E0,2.4197161E0,4.410224E0,0E0,0E0,4.453494E0,6.5850267E0,4.410242E0,2.5484867E0,7.814131E0,4.400791E0,4.0954924E0,3.7783556E0,4.906289E0,3.8718877E0,0E0,2.5262823E0,0E0,0E0,0E0,0E0,0E0,0E0,0E0,0E0,0E0,0E0,0E0,0E0,0E0,0E0,0E0,0E0,0E0,0E0,0E0,0E0,0E0,0E0],"parents":[2147483647,0,0,1,1,2,2,3,3,4,4,5,5,6,6,7,7,8,8,9,9,10,10,11,11,12,12,15,15,16,16,17,17,18,18,19,19,20,20,21,21,22,22,23,23,24,24,26,26],"right_children":[2,4,6,8,10,12,14,16,18,20,22,24,26,-1,-1,28,30,32,34,36,38,40,42,44,46,-1,48,-1,-1,-1,-1,-1,-1,-1,-1,-1,-1,-1,-1,-1,-1,-1,-1,-1,-1,-1,-1,-1,-1],"split_conditions":[1.8564357E-3,-1.2676981E-4,7.511413E1,1.0027493E0,-7.3771836E-4,6.650235E1,1.4162224E2,-5.3200923E-4,1.0712376E2,3.9472645E-5,6.2979893E1,6.3625114E1,2.0000783E-3,4.1035002E-1,-1.302238E-1,-1.2145431E-3,2.588578E1,4.810986E1,-1.9758919E-3,1.0017307E0,-2.9389537E-3,6.025172E1,6.43116E1,6.1105698E1,1.31794E2,1.3652724E-1,1.2731645E-3,-4.952193E-3,4.533406E-2,7.12156E-2,-3.8114202E-3,1.23598345E-1,-1.473889E-1,-3.537052E-2,1.8262114E-1,-7.700607E-2,-4.0135783E-1,6.274618E-2,-2.7103849E-2,2.4837179E-3,4.143979E-2,-7.903745E-2,-1.4413282E-2,-2.9927514E-2,-2.5287843E-1,-1.1320632E-1,2.3859052E-1,-3.6985916E-1,-3.8832787E-2],"split_indices":[6,5,3,2,6,3,0,6,0,5,3,3,6,0,0,6,0,0,6,2,6,3,3,3,0,0,5,0,0,0,0,0,0,0,0,0,0,0,0,0,0,0,0,0,0,0,0,0,0],"split_type":[0,0,0,0,0,0,0,0,0,0,0,0,0,0,0,0,0,0,0,0,0,0,0,0,0,0,0,0,0,0,0,0,0,0,0,0,0,0,0,0,0,0,0,0,0,0,0,0,0],"sum_hessian":[8.914089E3,8.679204E3,2.3488437E2,3.5683354E3,5.110869E3,2.2890402E2,5.9803376E0,3.4852908E3,8.304472E1,7.924343E2,4.3184346E3,2.1624165E2,1.2662382E1,4.1079516E0,1.8723862E0,7.116154E2,2.7736753E3,2.4352068E1,5.8692654E1,1.2854935E2,6.63885E2,3.7581665E3,5.602682E2,2.0622826E2,1.001339E1,2.1415062E0,1.0520876E1,2.3761389E2,4.7400153E2,1.0861338E2,2.6650618E3,6.7482376E0,1.760383E1,4.969663E0,5.3722992E1,1.2238528E2,6.164065E0,5.239111E1,6.114939E2,3.4981458E3,2.6002075E2,9.80237E1,4.622445E2,1.9789427E2,8.333979E0,3.8744662E0,6.138923E0,7.4302053E0,3.0906708E0],"tree_param":{"num_deleted":"0","num_feature":"7","num_nodes":"49","size_leaf_vector":"1"}},{"base_weights":[6.201754E-4,-6.18678E-3,4.8322935E-2,2.0434542E-3,-5.94013E-2,2.2893454E-1,-2.556272E-3,-8.910347E-3,1.2044235E-1,-3.7282962E-1,-3.2291085E-2,2.8294006E-1,-2.231071E-1,-3.561444E-2,1.23896435E-1,-4.667445E-3,-1.3445331E-1,-1.346599E-2,2.1607386E-1,-4.676772E-1,2.3338164E-1,-3.6986735E-2,4.5433336E-1,-2.8810114E-1,3.0562106E-1,4.83014E-1,-4.1604918E-1,-7.019769E-3,-4.1535363E-1,4.9795952E-1,4.555377E-3,-3.915091E-3,3.9257903E-2,-4.759657E-2,3.8734666E-1,3.5788823E-2,-4.5104932E-2,8.7022856E-2,-2.5412358E-2,-5.59115E-2,-1.9856437E-1,-9.243421E-2,1.414111E-1,1.3006327E-2,-1.8378114E-2,-1.2613283E-1,3.0877867E-1,5.051779E-2,1.3734226E-1,-3.4512997E-2,2.9606032E-1,-2.4814858E-1,-1.7761089E-2,-9.0093724E-2,5.861628E-3,1.18060276E-1,-1.515074E-1,3.431598E-1,5.312175E-2,-3.0425495E-2,7.448156E-2],"categories":[],"categories_nodes":[],"categories_segments":[],"categories_sizes":[],"default_left":[0,0,0,0,0,0,0,0,0,0,0,0,0,0,0,0,0,0,0,0,0,0,0,0,0,0,0,0,0,0,0,0,0,0,0,0,0,0,0,0,0,0,0,0,0,0,0,0,0,0,0,0,0,0,0,0,0,0,0,0,0],"id":21,"left_children":[1,3,5,7,9,11,13,15,17,19,21,23,25,27,29,31,33,35,37,39,41,43,45,-1,47,49,51,53,55,57,59,-1,-1,-1,-1,-1,-1,-1,-1,-1,-1,-1,-1,-1,-1,-1,-1,-1,-1,-1,-1,-1,-1,-1,-1,-1,-1,-1,-1,-1,-1],"loss_changes":[2.8827589E0,3.402858E0,1.0188288E1,8.728903E0,8.830936E0,6.0119762E0,3.6243858E0,3.2809815E0,7.301586E0,4.8673916E0,2.2080178E0,6.4440403E0,3.8201208E0,7.459818E0,8.019342E0,6.7732925E0,7.152527E0,4.3502774E0,7.426734E0,3.804165E0,1.6740506E0,1.8567014E0,5.0799313E0,0E0,4.4122925E0,1.9708306E0,3.090625E0,4.992337E0,3.6883993E0,8.803691E0,3.5696995E0,0E0,0E0,0E0,0E0,0E0,0E0,0E0,0E0,0E0,0E0,0E0,0E0,0E0,0E0,0E0,0E0,0E0,0E0,0E0,0E0,0E0,0E0,0E0,0E0,0E0,0E0,0E0,0E0,0E0,0E0],"parents":[2147483647,0,0,1,1,2,2,3,3,4,4,5,5,6,6,7,7,8,8,9,9,10,10,11,11,12,12,13,13,14,14,15,15,16,16,17,17,18,18,19,19,20,20,21,21,22,22,24,24,25,25,26,26,27,27,28,28,29,29,30,30],"right_children":[2,4,6,8,10,12,14,16,18,20,22,24,26,28,30,32,34,36,38,40,42,44,46,-1,48,50,52,54,56,58,60,-1,-1,-1,-1,-1,-1,-1,-1,-1,-1,-1,-1,-1,-1,-1,-1,-1,-1,-1,-1,-1,-1,-1,-1,-1,-1,-1,-1,-1,-1],"split_conditions":[6.0426373E1,6.863846E-4,6.214103E1,4.4934318E-4,7.4128987E-4,4.81652E2,7.7516504E-4,3.8898556E-4,-1.832523E-4,5.7257877E1,4.6685343E-3,-1.2933658E-3,-1.832523E-4,6.4282824E-4,9.4023626E-4,2.8941277E-4,6.003599E1,-5.8620464E-4,5.632444E1,-2.6218154E-4,-2.2567197E-4,-8.199905E-4,8.8978E1,-2.8810114E-1,3.0618493E-4,-4.2127617E-4,5.965245E2,6.268075E1,6.3303547E1,1.48917725E-5,2.587825E2,-3.915091E-3,3.9257903E-2,-4.759657E-2,3.8734666E-1,3.5788823E-2,-4.5104932E-2,8.7022856E-2,-2.5412358E-2,-5.59115E-2,-1.9856437E-1,-9.243421E-2,1.414111E-1,1.3006327E-2,-1.8378114E-2,-1.2613283E-1,3.0877867E-1,5.051779E-2,1.3734226E-1,-3.4512997E-2,2.9606032E-1,-2.4814858E-1,-1.7761089E-2,-9.0093724E-2,5.861628E-3,1.18060276E-1,-1.515074E-1,3.431598E-1,5.312175E-2,-3.0425495E-2,7.448156E-2],"split_indices":[3,6,3,6,6,1,6,6,4,3,4,4,4,6,6,6,3,4,3,4,4,4,0,0,4,4,0,3,3,4,0,0,0,0,0,0,0,0,0,0,0,0,0,0,0,0,0,0,0,0,0,0,0,0,0,0,0,0,0,0,0],"split_type":[0,0,0,0,0,0,0,0,0,0,0,0,0,0,0,0,0,0,0,0,0,0,0,0,0,0,0,0,0,0,0,0,0,0,0,0,0,0,0,0,0,0,0,0,0,0,0,0,0,0,0,0,0,0,0,0,0,0,0,0,0],"sum_hessian":[8.876012E3,7.768373E3,1.1076393E3,6.728669E3,1.039704E3,2.4267812E2,8.649612E2,6.15972E3,5.6894836E2,8.175545E1,9.5794855E2,2.1711359E2,2.5564526E1,6.8626996E2,1.7869122E2,5.959353E3,2.0036757E2,2.3739474E2,3.3155362E2,7.0892204E1,1.0863246E1,9.4970844E2,8.24015E0,3.1491563E0,2.1396443E2,5.163598E0,2.0400927E1,6.3915924E2,4.7110725E1,4.2453194E1,1.3623804E2,5.6130674E3,3.4628543E2,1.9789668E2,2.4708922E0,1.20576965E2,1.1681778E2,2.6611584E2,6.543777E1,2.9753605E1,4.1138596E1,3.2267537E0,7.636492E0,2.2017726E2,7.295311E2,3.3744698E0,4.8656807E0,1.13619125E2,1.00345314E2,2.7139292E0,2.449669E0,8.867231E0,1.1533695E1,5.2216084E1,5.869432E2,4.363214E0,4.2747513E1,1.3239333E1,2.921386E1,9.5357994E1,4.0880043E1],"tree_param":{"num_deleted":"0","num_feature":"7","num_nodes":"61","size_leaf_vector":"1"}},{"base_weights":[-2.5475436E-4,2.4453562E-2,-9.2373155E-3,-1.5868103E-2,7.837655E-2,-9.611718E-2,-4.2834063E-3,1.0372917E-2,-2.2846174E-1,-1.4468292E-2,1.4305861E-1,-1.2366175E-1,6.207461E-1,-2.4228673E-1,-1.3177994E-3,-2.4498871E-1,2.4868904E-2,-3.244025E-1,1.3926432E-1,-2.3169935E-1,4.159244E-2,9.98219E-2,3.5364315E-1,-4.372128E-1,-7.546729E-2,1.243273E0,3.371482E-2,-3.95889E-1,1.0931992E-1,9.63328E-2,-7.931813E-3,3.771604E-2,-1.5667917E-1,2.1315591E-1,5.985099E-3,-1.4661111E-1,-8.781797E-5,1.2851505E-1,-7.864365E-2,1.67039E-1,-1.030834E-1,-3.211309E-2,4.895361E-2,4.820696E-2,-2.7986819E-2,-4.0101092E-2,1.366521E-1,1.6504218E-1,-1.7568645E-1,-1.46558015E-2,-1.7645779E-1,4.283274E-1,8.031646E-2,2.6690897E-1,-9.104148E-2,1.748621E-1,-1.3917893E-1,2.7790606E-1,-3.1360768E-2,7.92349E-2,5.6413375E-3,-4.856618E-2,-6.741313E-4],"categories":[],"categories_nodes":[],"categories_segments":[],"categories_sizes":[],"default_left":[0,0,0,0,0,0,0,0,0,0,0,0,0,0,0,0,0,0,0,0,0,0,0,0,0,0,0,0,0,0,0,0,0,0,0,0,0,0,0,0,0,0,0,0,0,0,0,0,0,0,0,0,0,0,0,0,0,0,0,0,0,0,0],"id":22,"left_children":[1,3,5,7,9,11,13,15,17,19,21,23,25,27,29,31,33,35,37,39,41,43,45,47,49,51,53,55,57,59,61,-1,-1,-1,-1,-1,-1,-1,-1,-1,-1,-1,-1,-1,-1,-1,-1,-1,-1,-1,-1,-1,-1,-1,-1,-1,-1,-1,-1,-1,-1,-1,-1],"loss_changes":[1.9756454E0,5.1614428E0,2.8093038E0,7.582352E0,6.1009407E0,7.0294957E0,4.359636E0,4.4867005E0,5.313526E0,5.0989885E0,5.415454E0,5.103663E0,4.780114E0,4.1487355E0,3.9418778E0,6.758424E0,3.8516378E0,6.3224916E0,3.7794852E0,7.769422E0,6.03603E0,5.869479E0,5.103463E0,6.9275265E0,4.008308E0,7.652817E-1,2.52676E0,3.8080378E0,4.272017E0,5.0312247E0,5.0021744E0,0E0,0E0,0E0,0E0,0E0,0E0,0E0,0E0,0E0,0E0,0E0,0E0,0E0,0E0,0E0,0E0,0E0,0E0,0E0,0E0,0E0,0E0,0E0,0E0,0E0,0E0,0E0,0E0,0E0,0E0,0E0,0E0],"parents":[2147483647,0,0,1,1,2,2,3,3,4,4,5,5,6,6,7,7,8,8,9,9,10,10,11,11,12,12,13,13,14,14,15,15,16,16,17,17,18,18,19,19,20,20,21,21,22,22,23,23,24,24,25,25,26,26,27,27,28,28,29,29,30,30],"right_children":[2,4,6,8,10,12,14,16,18,20,22,24,26,28,30,32,34,36,38,40,42,44,46,48,50,52,54,56,58,60,62,-1,-1,-1,-1,-1,-1,-1,-1,-1,-1,-1,-1,-1,-1,-1,-1,-1,-1,-1,-1,-1,-1,-1,-1,-1,-1,-1,-1,-1,-1,-1,-1],"split_conditions":[4.0516747E1,9.988055E-1,4.1866795E1,3.866063E1,3.6224575E1,9.05919E2,1.9337154E1,4.401799E1,5.018178E-4,-6.378907E-4,3.233107E-4,5.751293E1,4.1200638E1,1.0003616E0,9.9886847E-1,-3.7392497E-4,4.440335E1,3.9848686E1,2.4619725E2,-1.1693549E-3,1.3212852E2,9.9972934E-1,9.9898237E-1,1.9337154E1,1.0799033E-3,9.995679E-1,-9.0327684E-4,4.2489067E1,-5.24109E-4,-4.2218194E-4,9.9911565E-1,3.771604E-2,-1.5667917E-1,2.1315591E-1,5.985099E-3,-1.4661111E-1,-8.781797E-5,1.2851505E-1,-7.864365E-2,1.67039E-1,-1.030834E-1,-3.211309E-2,4.895361E-2,4.820696E-2,-2.7986819E-2,-4.0101092E-2,1.366521E-1,1.6504218E-1,-1.7568645E-1,-1.46558015E-2,-1.7645779E-1,4.283274E-1,8.031646E-2,2.6690897E-1,-9.104148E-2,1.748621E-1,-1.3917893E-1,2.7790606E-1,-3.1360768E-2,7.92349E-2,5.6413375E-3,-4.856618E-2,-6.741313E-4],"split_indices":[3,2,3,3,3,1,1,1,6,6,6,1,3,2,2,5,1,3,1,5,1,2,2,1,5,2,6,3,6,6,2,0,0,0,0,0,0,0,0,0,0,0,0,0,0,0,0,0,0,0,0,0,0,0,0,0,0,0,0,0,0,0,0],"split_type":[0,0,0,0,0,0,0,0,0,0,0,0,0,0,0,0,0,0,0,0,0,0,0,0,0,0,0,0,0,0,0,0,0,0,0,0,0,0,0,0,0,0,0,0,0,0,0,0,0,0,0,0,0,0,0,0,0,0,0,0,0,0,0],"sum_hessian":[8.899534E3,2.3723079E3,6.5272256E3,1.3577427E3,1.01456525E3,3.5111395E2,6.176112E3,1.2094127E3,1.4832994E2,4.1690903E2,5.9765625E2,3.389189E2,1.2195035E1,7.5016304E1,6.1010957E3,6.41121E1,1.1453005E3,1.1773132E2,3.0598623E1,8.487846E1,3.3203058E2,4.9707254E2,1.005837E2,4.4077938E1,2.9484097E2,5.3760333E0,6.819002E0,5.2120907E1,2.2895397E1,3.8616177E2,5.7149336E3,2.766773E1,3.6444366E1,7.135629E0,1.1381649E3,7.778958E1,3.9941746E1,1.7748154E1,1.285047E1,1.0055478E1,7.482298E1,1.4945064E2,1.8257994E2,3.7807318E2,1.1899936E2,1.7336098E1,8.3247604E1,5.405901E0,3.867204E1,2.813328E2,1.3508178E1,4.131242E0,1.2447915E0,1.463972E0,5.35503E0,2.8959703E0,4.9224937E1,4.058453E0,1.8836945E1,1.2128193E2,2.6487982E2,2.0252756E2,5.5124062E3],"tree_param":{"num_deleted":"0","num_feature":"7","num_nodes":"63","size_leaf_vector":"1"}},{"base_weights":[-4.177497E-3,4.441673E-2,-1.1074117E-2,2.0317424E-2,1.8000098E-1,-9.468775E-3,-2.1103762E-1,-1.6920684E-2,9.270531E-2,9.6342556E-2,3.5760355E-1,8.8007245E-3,-2.3480156E-2,9.425209E-2,-6.484611E-1,9.288023E-3,-3.3825463E-1,5.131614E-1,5.6335475E-2,6.174983E-1,2.0850679E-2,9.71646E-1,2.1515293E-1,-1.818094E-3,1.0901788E-1,-4.343978E-1,-2.058942E-2,-4.3077666E-1,2.0010038E-1,-8.971119E-1,-1.4242235E-1,8.072407E-3,-1.0426592E-1,-1.6179033E-2,-1.9025278E-1,4.1387152E-2,2.5939748E-1,6.3848193E-3,1.08762555E-1,2.5622982E-1,-1.8012516E-1,3.332875E-2,-1.0179326E-1,3.5409915E-1,2.1141801E-2,-1.4570679E-1,9.693474E-2,6.8059005E-3,-1.9032238E-2,6.103263E-2,-2.7713796E-2,5.4199424E-2,-2.9709083E-1,9.775048E-3,-1.0059092E-2,3.9332952E-2,-2.1797056E-1,1.4188777E-1,-5.0615985E-2,5.74939E-2,-2.9809266E-1,2.662031E-1,-1.8648517E-1],"categories":[],"categories_nodes":[],"categories_segments":[],"categories_sizes":[],"default_left":[0,0,0,0,0,0,0,0,0,0,0,0,0,0,0,0,0,0,0,0,0,0,0,0,0,0,0,0,0,0,0,0,0,0,0,0,0,0,0,0,0,0,0,0,0,0,0,0,0,0,0,0,0,0,0,0,0,0,0,0,0,0,0],"id":23,"left_children":[1,3,5,7,9,11,13,15,17,19,21,23,25,27,29,31,33,35,37,39,41,43,45,47,49,51,53,55,57,59,61,-1,-1,-1,-1,-1,-1,-1,-1,-1,-1,-1,-1,-1,-1,-1,-1,-1,-1,-1,-1,-1,-1,-1,-1,-1,-1,-1,-1,-1,-1,-1,-1],"loss_changes":[3.0044153E0,3.6369553E0,2.5179622E0,2.5547426E0,2.4620676E0,1.993948E0,8.403834E0,5.2774835E0,4.893426E0,4.534827E0,4.464932E0,3.5985901E0,5.227453E0,2.1794734E0,3.1193542E0,3.6562576E0,3.9417372E0,3.244235E0,3.184255E0,4.717191E0,3.353006E0,1.7555981E0,3.535922E0,4.6196795E0,6.1796975E0,1.0691174E1,3.013984E0,1.1983241E0,3.3031597E0,1.9891882E0,5.333801E0,0E0,0E0,0E0,0E0,0E0,0E0,0E0,0E0,0E0,0E0,0E0,0E0,0E0,0E0,0E0,0E0,0E0,0E0,0E0,0E0,0E0,0E0,0E0,0E0,0E0,0E0,0E0,0E0,0E0,0E0,0E0,0E0],"parents":[2147483647,0,0,1,1,2,2,3,3,4,4,5,5,6,6,7,7,8,8,9,9,10,10,11,11,12,12,13,13,14,14,15,15,16,16,17,17,18,18,19,19,20,20,21,21,22,22,23,23,24,24,25,25,26,26,27,27,28,28,29,29,30,30],"right_children":[2,4,6,8,10,12,14,16,18,20,22,24,26,28,30,32,34,36,38,40,42,44,46,48,50,52,54,56,58,60,62,-1,-1,-1,-1,-1,-1,-1,-1,-1,-1,-1,-1,-1,-1,-1,-1,-1,-1,-1,-1,-1,-1,-1,-1,-1,-1,-1,-1,-1,-1,-1,-1],"split_conditions":[-8.392175E-4,4.53412E2,2.784813E-3,2.810707E-4,-1.0722423E-3,1.4202255E2,1.0007329E0,1.612227E-4,3.564427E-4,4.894045E2,3.3938522E1,9.680542E-4,1.48439E2,9.792636E-1,1.0052984E0,5.588326E1,1.81773E2,1.49229E2,-9.2330156E-4,9.155646E-4,-1.2122681E-3,-8.807055E-4,3.565464E1,5.458553E1,1.7382082E-3,4.094763E1,3.9143745E1,8.0185E1,4.7565376E1,-5.9996E-4,6.268075E1,8.072407E-3,-1.0426592E-1,-1.6179033E-2,-1.9025278E-1,4.1387152E-2,2.5939748E-1,6.3848193E-3,1.08762555E-1,2.5622982E-1,-1.8012516E-1,3.332875E-2,-1.0179326E-1,3.5409915E-1,2.1141801E-2,-1.4570679E-1,9.693474E-2,6.8059005E-3,-1.9032238E-2,6.103263E-2,-2.7713796E-2,5.4199424E-2,-2.9709083E-1,9.775048E-3,-1.0059092E-2,3.9332952E-2,-2.1797056E-1,1.4188777E-1,-5.0615985E-2,5.74939E-2,-2.9809266E-1,2.662031E-1,-1.8648517E-1],"split_indices":[4,0,6,6,4,0,2,6,6,0,3,4,0,2,2,3,0,0,4,6,4,4,3,3,4,3,3,0,3,4,3,0,0,0,0,0,0,0,0,0,0,0,0,0,0,0,0,0,0,0,0,0,0,0,0,0,0,0,0,0,0,0,0],"split_type":[0,0,0,0,0,0,0,0,0,0,0,0,0,0,0,0,0,0,0,0,0,0,0,0,0,0,0,0,0,0,0,0,0,0,0,0,0,0,0,0,0,0,0,0,0,0,0,0,0,0,0,0,0,0,0,0,0,0,0,0,0,0,0],"sum_hessian":[8.962299E3,1.1131936E3,7.849105E3,9.4616766E2,1.670259E2,7.787632E3,6.1473118E1,6.2527637E2,3.208913E2,1.14591064E2,5.2434834E1,3.3803506E3,4.4072817E3,3.6666855E1,2.4806261E1,5.790212E2,4.6255154E1,2.4503801E1,2.9638748E2,1.3590415E1,1.0100065E2,8.777581E0,4.3657253E1,3.0573784E3,3.229721E2,2.9745123E1,4.3775366E3,5.6369076E0,3.1029947E1,1.6115047E1,8.691215E0,5.5265686E2,2.6364344E1,2.4192738E1,2.2062416E1,1.2525732E1,1.1978069E1,2.6690344E2,2.9484066E1,1.1629839E1,1.9605758E0,8.1316765E1,1.9683884E1,6.875624E0,1.9019573E0,5.360545E0,3.8296707E1,2.1879617E3,8.694169E2,2.1987466E2,1.0309745E2,1.4441649E1,1.5303474E1,8.565466E2,3.5209897E3,2.1360378E0,3.5008698E0,1.7672907E1,1.335704E1,1.2321683E0,1.4882878E1,2.489552E0,6.2016625E0],"tree_param":{"num_deleted":"0","num_feature":"7","num_nodes":"63","size_leaf_vector":"1"}},{"base_weights":[-2.3462E-3,-1.1277435E-3,-3.0522576E-1,1.728254E-2,-1.69719E-2,-7.9605997E-1,2.3812482E-3,9.984634E-3,2.2905183E-1,-1.4904529E-1,4.1436896E-4,-3.367402E-1,-1.195007E0,1.8169716E-1,-4.723023E-1,-8.580568E-3,5.560195E-2,2.8577572E-1,-3.9946538E-1,-1.6272378E-1,8.009785E-1,2.852021E-1,-3.2690943E-3,-6.393185E-1,1.7497516E-1,-1.338904E-1,-4.06786E-1,5.4714483E-1,-2.5368947E-1,1.4233626E-1,-2.7333444E-1,-4.7862222E-3,5.1892683E-2,4.238972E-2,-2.0029026E-3,1.1405199E-1,-3.5645664E-2,-2.2716972E-1,3.9114684E-2,-5.12996E-2,3.0569154E-1,3.7719545E-1,-3.4231097E-2,1.5959705E-1,-1.8153988E-2,-9.676015E-3,6.306219E-3,-2.8214246E-1,1.01458654E-1,-3.2434963E-2,2.8371638E-1,6.8371154E-2,-2.4359964E-1,-1.11878455E-1,1.9932528E-1],"categories":[],"categories_nodes":[],"categories_segments":[],"categories_sizes":[],"default_left":[0,0,0,0,0,0,0,0,0,0,0,0,0,0,0,0,0,0,0,0,0,0,0,0,0,0,0,0,0,0,0,0,0,0,0,0,0,0,0,0,0,0,0,0,0,0,0,0,0,0,0,0,0,0,0],"id":24,"left_children":[1,3,5,7,9,11,13,15,17,19,21,23,25,27,29,31,33,35,37,39,41,43,45,47,-1,-1,-1,49,51,53,-1,-1,-1,-1,-1,-1,-1,-1,-1,-1,-1,-1,-1,-1,-1,-1,-1,-1,-1,-1,-1,-1,-1,-1,-1],"loss_changes":[3.2834828E0,2.5857387E0,5.384377E0,6.3345385E0,1.0940056E1,2.1148605E0,2.0360563E0,3.3581634E0,4.982371E0,7.3323336E0,4.4183373E0,2.5379846E0,2.3345661E-1,2.8997254E0,1.8989757E0,3.776241E0,6.1222935E0,4.8508873E0,2.32048E0,5.5247984E0,3.4988875E0,4.620769E0,2.9281898E0,2.1814942E0,0E0,0E0,0E0,2.6488206E0,2.4978375E0,1.215521E0,0E0,0E0,0E0,0E0,0E0,0E0,0E0,0E0,0E0,0E0,0E0,0E0,0E0,0E0,0E0,0E0,0E0,0E0,0E0,0E0,0E0,0E0,0E0,0E0,0E0],"parents":[2147483647,0,0,1,1,2,2,3,3,4,4,5,5,6,6,7,7,8,8,9,9,10,10,11,11,12,12,13,13,14,14,15,15,16,16,17,17,18,18,19,19,20,20,21,21,22,22,23,23,27,27,28,28,29,29],"right_children":[2,4,6,8,10,12,14,16,18,20,22,24,26,28,30,32,34,36,38,40,42,44,46,48,-1,-1,-1,50,52,54,-1,-1,-1,-1,-1,-1,-1,-1,-1,-1,-1,-1,-1,-1,-1,-1,-1,-1,-1,-1,-1,-1,-1,-1,-1],"split_conditions":[1.007307E0,9.997406E-1,6.466787E1,5.3542988E1,9.999153E-1,2.3325E2,2.784813E-3,4.3785583E1,6.0877308E1,6.0877308E1,-2.110536E-3,9.883E1,-1.758794E-3,7.776084E1,9.205275E1,9.9963486E-1,1.4202255E2,3.57066E2,2.3403688E2,2.0000783E-3,6.39662E1,2.247464E2,1.5283899E2,3.327065E-3,1.7497516E-1,-1.338904E-1,-4.06786E-1,-1.1404691E-3,1.3184207E2,4.6803644E-3,-2.7333444E-1,-4.7862222E-3,5.1892683E-2,4.238972E-2,-2.0029026E-3,1.1405199E-1,-3.5645664E-2,-2.2716972E-1,3.9114684E-2,-5.12996E-2,3.0569154E-1,3.7719545E-1,-3.4231097E-2,1.5959705E-1,-1.8153988E-2,-9.676015E-3,6.306219E-3,-2.8214246E-1,1.01458654E-1,-3.2434963E-2,2.8371638E-1,6.8371154E-2,-2.4359964E-1,-1.11878455E-1,1.9932528E-1],"split_indices":[2,2,3,3,2,0,6,3,3,3,6,0,6,3,1,2,0,0,0,6,3,0,1,6,0,0,0,6,1,6,0,0,0,0,0,0,0,0,0,0,0,0,0,0,0,0,0,0,0,0,0,0,0,0,0],"split_type":[0,0,0,0,0,0,0,0,0,0,0,0,0,0,0,0,0,0,0,0,0,0,0,0,0,0,0,0,0,0,0,0,0,0,0,0,0,0,0,0,0,0,0,0,0,0,0,0,0,0,0,0,0,0,0],"sum_hessian":[8.897161E3,8.862512E3,3.464934E1,4.099252E3,4.7632593E3,1.2737227E1,2.1912113E1,3.9637036E3,1.3554836E2,5.5321716E2,4.2100425E3,6.7778063E0,5.959421E0,1.6352163E1,5.55995E0,2.8177542E3,1.1459495E3,1.2482791E2,1.0720442E1,5.4618195E2,7.035243E0,5.278176E1,4.1572607E3,5.329917E0,1.4478894E0,1.7219709E0,4.23745E0,8.750568E0,7.601595E0,2.597417E0,2.9625328E0,2.70866E3,1.0909417E2,4.817608E2,6.6418866E2,1.01262344E2,2.3565565E1,6.1432247E0,4.577217E0,5.432332E2,2.9487212E0,4.444722E0,2.5905206E0,3.0482847E1,2.2298914E1,1.8953138E3,2.2619468E3,4.103565E0,1.2263513E0,3.58521E0,5.165358E0,4.398918E0,3.2026765E0,1.4510263E0,1.1463908E0],"tree_param":{"num_deleted":"0","num_feature":"7","num_nodes":"55","size_leaf_vector":"1"}},{"base_weights":[1.9451989E-3,-1.1607971E-2,2.0580458E-2,-6.567649E-3,-1.628016E-1,1.6553143E-2,2.1748003E-1,6.862418E-1,-8.070948E-3,-6.826853E-2,-5.9804744E-1,2.1943234E-2,-1.8646437E-1,1.0013318E0,2.2466509E-2,8.995908E-1,7.88245E-3,-1.188931E-2,1.759853E-1,8.6049125E-2,-2.1557684E-1,-3.4376043E-1,-4.712101E-1,-1.5040891E-1,2.651864E-2,-7.011826E-1,-1.3187498E-1,4.333956E-1,1.3146019E0,-5.1428746E-2,8.553723E-1,1.0232617E-1,3.8220966E-1,-1.4208929E-1,1.3360336E-1,-2.6702448E-3,-6.863699E-2,-3.1643948E-1,6.1390657E-2,-1.42168915E-2,1.6639549E-1,-9.516087E-2,5.717613E-2,-3.336675E-1,-1.03295945E-1,-2.1537265E-2,-1.8602441E-1,1.06522836E-1,6.489308E-3,-2.532119E-1,-3.81837E-2,-1.080765E-2,-1.5623035E-1,7.973536E-3,2.4832578E-1,4.3111852E-1,1.4317116E-1,2.7715775E-1,-3.086094E-2,4.6708446E-2,3.979714E-1],"categories":[],"categories_nodes":[],"categories_segments":[],"categories_sizes":[],"default_left":[0,0,0,0,0,0,0,0,0,0,0,0,0,0,0,0,0,0,0,0,0,0,0,0,0,0,0,0,0,0,0,0,0,0,0,0,0,0,0,0,0,0,0,0,0,0,0,0,0,0,0,0,0,0,0,0,0,0,0,0,0],"id":25,"left_children":[1,3,5,7,9,11,13,15,17,19,21,23,25,27,29,31,33,35,37,39,41,-1,43,45,47,49,51,53,55,57,59,-1,-1,-1,-1,-1,-1,-1,-1,-1,-1,-1,-1,-1,-1,-1,-1,-1,-1,-1,-1,-1,-1,-1,-1,-1,-1,-1,-1,-1,-1],"loss_changes":[2.2380292E0,3.9084616E0,2.9550018E0,5.177331E0,6.76724E0,4.00622E0,1.1396386E1,1.5506377E0,3.485105E0,3.1344242E0,1.5026417E0,2.8141851E0,2.5682864E0,2.0739746E0,3.788651E0,1.2759275E0,9.658826E-1,3.1457617E0,3.7698598E0,4.256811E0,2.966843E0,0E0,1.6967273E0,3.36386E0,5.568363E0,6.180186E-1,3.2184615E0,1.0648088E0,2.457819E-1,2.9460292E0,1.4467397E0,0E0,0E0,0E0,0E0,0E0,0E0,0E0,0E0,0E0,0E0,0E0,0E0,0E0,0E0,0E0,0E0,0E0,0E0,0E0,0E0,0E0,0E0,0E0,0E0,0E0,0E0,0E0,0E0,0E0,0E0],"parents":[2147483647,0,0,1,1,2,2,3,3,4,4,5,5,6,6,7,7,8,8,9,9,10,10,11,11,12,12,13,13,14,14,15,15,16,16,17,17,18,18,19,19,20,20,22,22,23,23,24,24,25,25,26,26,27,27,28,28,29,29,30,30],"right_children":[2,4,6,8,10,12,14,16,18,20,22,24,26,28,30,32,34,36,38,40,42,-1,44,46,48,50,52,54,56,58,60,-1,-1,-1,-1,-1,-1,-1,-1,-1,-1,-1,-1,-1,-1,-1,-1,-1,-1,-1,-1,-1,-1,-1,-1,-1,-1,-1,-1,-1,-1],"split_conditions":[7.9106416E-5,1.6501427E-3,2.1780562E-3,-4.932986E-3,-1.3872924E-4,1.7403103E-3,2.4396856E-3,2.8750976E-4,1.3226317E-3,-1.384658E-4,-9.454477E-5,2.565E1,-3.6109274E-3,-1.0212606E-3,6.43699E2,-2.110536E-3,-1.2957318E-3,6.5302775E-5,-2.919774E-3,4.3348608E2,1.8548869E-3,-3.4376043E-1,5.772E1,2.258882E1,3.737174E1,2.45283E-3,7.1610144E-4,2.4773E2,2.1905806E-3,2.565E1,-1.2482394E-3,1.0232617E-1,3.8220966E-1,-1.4208929E-1,1.3360336E-1,-2.6702448E-3,-6.863699E-2,-3.1643948E-1,6.1390657E-2,-1.42168915E-2,1.6639549E-1,-9.516087E-2,5.717613E-2,-3.336675E-1,-1.03295945E-1,-2.1537265E-2,-1.8602441E-1,1.06522836E-1,6.489308E-3,-2.532119E-1,-3.81837E-2,-1.080765E-2,-1.5623035E-1,7.973536E-3,2.4832578E-1,